SVM-light Version V5.01-TK-1.5
5 # kernel type
2 # kernel parameter -d 
1 # kernel parameter -g 
1 # kernel parameter -s 
1 # kernel parameter -r 
empty# kernel parameter -u 
0.1 # kernel parameter -L 
25 # kernel parameter -T 
V # kernel parameter -C 
1 # kernel parameter -F 
1 # kernel parameter -S 
0.400000 # kernel parameter -M 
3 # kernel parameter -N 
S # kernel parameter -V 
S # kernel parameter -W 
0 # kernel parameter -U 
14648 # highest feature index 
2034 # number of training documents 
1487 # number of support vectors plus 1 
1.0297473 # threshold b, each following line is a SV (starting with alpha*y)
-0.027499037807416564643814282931089  |BT| (ROOT (NP (CHEMICALPRI (CEM)))(VP (ADJP (JJ (competitive))(ADVP (RB (slowly)))(NP (JJ (reversible))(NNS (antagonist)))(PP (IN (at))(NP (DT (the))(GENEPROPRI (GPRO)))(PP (IN (of))(NP (NN (rat)))))(VP (RELATION (leave)))))) |ET| 1:3 47:1 148:1 1542:1 1543:1 1544:1 1545:1 1546:1 1547:1 1548:1 1549:1 1550:1 1551:1 1552:1  |EV| 
-0.031874540140757939843396684409527  |BT| (ROOT (NP (PRP (We)))(VP (RELATION (conclude))(IN (that))(NP (CHEMICALPRI (CEM))(CC (and))(NNP (chemical)))(VP (VBP (be))(ADJP (JJ (competitive)))(ADVP (RB (slowly)))(ADJP (JJ (reversible)))(GENEPROPRI (GPRO))))) |ET| 1:3 18:1 343:1 1542:1 1544:1 1553:1 1554:1 1555:1 1556:1 1557:1 1558:1  |EV| 
-0.11341094183829603103674799058354  |BT| (ROOT (NP (NNP (chemical)))(CC (and))(CHEMICALPRI (CEM))(ADVP (RB (also)))(NP (RELATION (cause))(NN (antagonism)))(PP (IN (of))(NP (NNP (chemical))(NN (responses)))(CC (and))(NP (DT (this))(GENEPROPRI (GPRO))))) |ET| 1:3 3:1 4:1 1542:1 1559:1 1560:1 1561:1 1562:1 1563:1 1564:1  |EV| 
-0.046545829100498994912449290950462  |BT| (ROOT (NP (PRP (We)))(VP (RELATION (conclude))(IN (that))(NP (NNP (chemical))(CC (and))(CHEMICALPRI (CEM)))(VP (VBP (be))(ADJP (JJ (competitive)))(ADVP (RB (slowly)))(ADJP (JJ (reversible)))(GENEPROPRI (GPRO))))) |ET| 1:3 18:1 158:1 1542:1 1544:1 1553:1 1554:1 1555:1 1565:1 1566:1 1567:1  |EV| 
1.1919586831449595631937654616195  |BT| (ROOT (CLASS (CPR9))(NP (NNP (genepro))(NNP (genepro)))(VP (ADVP (RB (normally)))(RELATION (transfer))(NP (NNP (chemical)))(PP (IN (from))(NP (ADJP (CHEMICALPRI (CEM))(PP (TO (to))(NP (NNP (chemical)))(PP (IN (in))(NP (PP (IN (of))(NP (NNP (chemical))))))))(NN (ion))(GENEPROPRI (GPRO))(NN (activity)))))(CC (and))(VP (ADVP (RB (also))))) |ET| 1:3 2:1 3:1 4:3 5:1 6:1 7:1 8:1 9:1 10:1 11:1 12:1 13:1 14:1 15:1 16:1 17:1  |EV| 
0.3331334148171177789166108595964  |BT| (ROOT (CLASS (CPR9))(LS (2. ))(NP (PRP (We)))(VP (VBP (have))(VP (RELATION (develop))(VP (TO (to))(VP (VB (measure))(NP (DT (the))(NN (glucuronidation))(NN (rate)))(PP (IN (of))(NP (CHEMICALPRI (CEM))(NNP (chemical)))(PP (IN (for))(NP (JJ (several)))))))))(GENEPROPRI (GPRO))) |ET| 1:3 2:1 18:1 19:1 20:1 21:1 22:1 23:1 24:1 25:1 26:1 27:1 28:1 29:1  |EV| 
0.52941810147371892725232100929134  |BT| (ROOT (CLASS (CPR9))(PP (NP (NN (concentration)))(PP (IN (of))(NP (NN (20 µM)))))(NP (DT (the))(ADJP (RBS (most))(JJ (active)))(CHEMICALPRI (CEM))(NN (glucuronidation))(NNS (catalyst)))(VP (VBD (be))(NP (NNP (genepro))(RELATION (follow)))(VP (NP (ADJP (JJR (good)))(NN (catalyst)))(PP (IN (than))(NP (DT (the))(JJ (other))(JJ (recombinant))))))(GENEPROPRI (GPRO))) |ET| 1:3 2:1 30:1 31:1 32:1 33:1 34:1 35:1 36:1 37:1 38:1 39:1 40:1 41:1 42:1 43:1 44:1  |EV| 
0.16301418647933080263712213309191  |BT| (ROOT (CLASS (CPR9))(NP (DT (The))(NNS (activity)))(PP (IN (of))(NP (GENEPROPRI (GPRO))))(VP (VBD (be))(ADJP (JJ (low)))(IN (whereas))(NP (NNP (genepro))(CC (and))(NNP (genepro)))(VP (RELATION (exhibit))(VP (NEGDT (no))(NP (CHEMICALPRI (CEM))))))) |ET| 1:3 2:1 45:1 46:1 47:1 48:1 49:1 50:1 51:1 52:1 53:1 54:1 55:1  |EV| 
0.13212118779947776281424864919245  |BT| (ROOT (CLASS (CPR9))(NP (NNP (genepro)))(VP (RELATION (exhibit))(NP (NN (Vmax))(CC (and))(NN (Km))(NNS (value)))(PP (IN (toward))(NP (CC (both))(NP (CHEMICALPRI (CEM)))(CC (and))(NP (NNP (chemical))(NNP (chemical)))))(PP (IN (than))(NP (DT (the))(JJ (other)))))(GENEPROPRI (GPRO))) |ET| 1:3 2:1 47:1 56:1 57:1 58:1 59:1 60:1 61:1 62:1 63:1 64:1 65:1  |EV| 
-0.11941637921547526568488706288917  |BT| (ROOT (NP (PP (NP (NN (C))(CD (4)))(CC (and))(NP (NN (E))(CD (4)))(CC (and))(NP (CHEMICALPRI (CEM)))))(VP (ADJP (PP (NP (PP (IN (of))(NP (NNP (chemical)))))))(NP (DT (a))(JJ (specific))(NN (inhibitor)))(PP (IN (of))(NP (GENEPROPRI (GPRO)))))) |ET| 1:2 4:1 8:1 9:1 46:1 47:1 49:1 1472:1 9170:1 11784:1 11785:1 11786:1 11787:1 11788:1 11789:1 11790:1 11791:1  |EV| 
-0.028515890697049954549679995352562  |BT| (ROOT (NP (CC (or))(NP (NNP (chemical))))(VP (VBD (improve))(NP (JJ (histopathological))(NN (damages)))(VP (VBD (decrease))(NP (CHEMICALPRI (CEM)))(VP (NP (PP (NP (NN (activation)))(PP (IN (of))(NP (NNP (genepro))))(CC (and))(NP (NN (release)))(PP (IN (of))(NP (GENEPROPRI (GPRO)))))))))) |ET| 1:2 4:1 46:1 47:1 49:1 56:1 858:1 4226:1 4644:1 4647:1 4648:1 8924:1 8925:1 8926:1 8927:1 8928:1 8929:1 8930:1  |EV| 
-0.099459507059422164187978410154756  |BT| (ROOT (VP (ADVP (RB (normally)))(VBZ (transfer))(NP (NNP (chemical)))(PP (IN (from))(NP (NNP (chemical))))(VP (TO (to))(VP (CHEMICALPRI (CEM))(PP (IN (in))(NP (DT (the)))))))(VP (VBZ (transfer))(NP (NN (Glc)))(PP (IN (from))(NP (NNP (chemical)))(PP (TO (to))(NP (NNP (chemical))(GENEPROPRI (GPRO)))(NN (activity)))))) |ET| 1:2 4:3 5:1 263:1 1016:1 5844:1 5845:1 5846:1 5847:1 5848:1 5849:1 5850:1 5851:1 5852:1 5853:1 5854:1  |EV| 
0.099624833256616057708399125658616  |BT| (ROOT (CLASS (CPR9))(NP (CHEMICALPRI (CEM))(NNP (chemical)))(VP (VBZ (be))(ADVP (RELATION (synthesize)))(PP (NP (PP (NP (NN (action)))(PP (IN (of))(NP (NNP (genepro))(NNP (genepro))(CC (and))(NNP (genepro))))))))(GENEPROPRI (GPRO))) |ET| 1:3 2:1 21:1 448:1 741:1 742:1 743:1 744:1 745:1 746:1 747:1 748:1 749:1  |EV| 
0.17838146299278617723516049409227  |BT| (ROOT (CLASS (CPR9))(NP (DT (The))(NN (mouse)))(GENEPROPRI (GPRO))(NP (NN (subfamily))(RELATION (include)))(VP (ADJP (PP (NP (DT (the))(NN (metabolism)))(PP (IN (of))(NP (NNP (chemical))(NN (AA)))))))(NP (CHEMICALPRI (CEM)))) |ET| 1:3 2:1 47:1 599:1 1202:1 1203:1 1204:1 1205:1 1206:1 1207:1 1208:1 1209:1 1210:1  |EV| 
0.15432861962943353328903128840466  |BT| (ROOT (CLASS (CPR9))(ADJP (PP (NP (NN (production)))(PP (IN (of))(NP (CHEMICALPRI (CEM))(GENEPROPRI (GPRO))(NNP (genepro))))))(PP (ADVP (RB (also)))(RELATION (catalyse))(NP (DT (the))(JJ (reversible))(NN (transamination)))(PP (IN (of))))) |ET| 1:3 2:1 3:1 595:1 936:1 954:1 959:1 960:1 961:1 962:1 963:1 964:1 965:1  |EV| 
-0.0015652550486136931374991920762341  |BT| (ROOT (NP (NNP (chemical))(NN (content))(GENEPROPRI (GPRO)))(NN (activity))(CC (and))(GENEPROPRI (GPRO))(NN (mRNA))(VP (ADVP (RB (also)))(ADVP (RB (significantly)))(RELATION (increase))(PP (IN (after))(NP (CHEMICALPRI (CEM))(NN (provocation)))))) |ET| 1:3 3:1 557:1 4182:1 5519:1 5520:1 5521:1 5522:1 5523:1 5524:1  |EV| 
-0.13928111031256110163845107763336  |BT| (ROOT (CHEMICALPRI (CEM))(ADVP (RB (also)))(NP (RELATION (induce))(NN (expression)))(PP (IN (of))(NP (NNP (genepro))(NNP (genepro))))(CC (and))(NP (GENEPROPRI (GPRO)))) |ET| 1:3 3:1 7:1 46:1 2918:1 4182:1 4852:1 4853:1 4854:1  |EV| 
1.0192123980817553441369227584801  |BT| (ROOT (CLASS (CPR9))(NP (PRP (We)))(VP (VBP (conclude))(IN (that))(NP (NNP (genepro))(CC (and))(GENEPROPRI (GPRO)))(VP (VBP (be))(ADJP (PP (NP (PP (NP (NNP (chemical))(NN (carcinogens))))))))(CC (and))(NP (PRP (we)))(ADVP (RB (further)))(VP (RELATION (hypothesize))(IN (that))(VP (NP (PP (NP (PP (NP (PP (NP (NN (cancer))(NN (susceptibility)))(VP (VBG (follow))(NP (NNP (chemical)))(CC (or))(NP (CHEMICALPRI (CEM))(NN (exposure)))))))))))))) |ET| 1:3 2:1 4:1 18:1 422:1 641:1 642:1 643:1 644:1 645:1 646:1 647:1 648:1 649:1 650:1 651:1 652:1 653:1 654:1 655:1 656:1 657:1 658:1 659:1 660:1 661:1 662:1  |EV| 
0.83686844968874196659669451037189  |BT| (ROOT (CLASS (CPR9))(VP (PP (NP (PP (NP (PP (IN (of))(NP (NNP (chemical))))(PP (IN (for))(NP (NNP (genepro))(NNP (chemical))))(PP (IN (of))(NP (CHEMICALPRI (CEM))))(PP (IN (for))(NP (GENEPROPRI (GPRO))))(PP (NP (JJ (enzymatic))(NN (activity)))(PP (IN (of))(NP (JJ (different))(NNS (specie))))(VP (VBD (be))(ADVP (RELATION (determine))))))))))) |ET| 1:3 2:1 4:1 8:1 46:1 47:1 180:1 460:1 467:1 468:1 469:1 470:1 471:1 472:1 473:1 474:1 475:1 476:1 477:1 478:1 479:2 480:1  |EV| 
0.32096380689997233703891765799199  |BT| (ROOT (CLASS (CPR9))(NP (NN (Depletion)))(PP (IN (of))(NP (NNP (chemical))(CHEMICALPRI (CEM))))(PP (NP (NNP (chemical)))(PP (NP (DT (a))(JJ (specific))(NN (inhibitor)))(PP (IN (of))(NP (GENEPROPRI (GPRO)))(VP (NP (JJ (first))(JJ (rate-limiting))(NN (enzyme)))(PP (IN (for))(NP (NNP (chemical))(NN (biosynthesis))))(PP (RELATION (decrease)))))))) |ET| 1:3 2:1 4:1 46:1 67:1 1469:1 1470:1 1471:1 1472:1 1473:1 1474:1 1475:1 1476:1 1477:1 1478:1 1479:1 1480:1 1481:1  |EV| 
-0.067052276329097992846328679661383  |BT| (ROOT (PP (IN (In))(NP (DT (this))(NN (paper))))(NP (PRP (we)))(PP (RELATION (investigate))(NP (DT (the))(NN (effect)))(PP (IN (of))(NP (NNP (chemical))(CHEMICALPRI (CEM))))(UCP (ADVP (FW (vitro)))(CC (and))(PP (FW (in))(NP (FW (vivo))))))(PP (IN (on))(NP (NNP (genepro))(GENEPROPRI (GPRO))))) |ET| 1:3 67:1 100:1 641:1 1327:1 1474:1 2604:1 2985:1 2986:1 2987:1 2988:1 2989:1 2990:1 2991:1 2992:1 2993:1 2994:1  |EV| 
-0.069897814643396713463197045257402  |BT| (ROOT (VP (PP (NP (NNP (chemical))(NNP (chemical)))))(CC (and))(NP (DT (the))(NNP (genepro))(GENEPROPRI (GPRO))(NN (inhibitor))(NNP (chemical)))(VP (VBD (block))(NP (DT (the))(NN (action)))(PP (IN (of))))(CHEMICALPRI (CEM))) |ET| 1:2 58:1 595:1 750:1 8597:1 8602:1 8620:1 8621:1 8622:1 8623:1  |EV| 
-0.070327450877062117062799018185615  |BT| (ROOT (NP (DT (A))(JJ (significant))(NN (decrease)))(PP (IN (of))(NP (NNP (genepro))(GENEPROPRI (GPRO))(NX (NNP (chemical))(NNS (level))))(CC (and))(NP (DT (an))(NN (increase)))(PP (IN (of))(NP (NNP (chemical))(CHEMICALPRI (CEM)))))) |ET| 1:2 67:1 1474:1 1513:1 13553:1 13575:1 13576:1 13577:1 13578:1 13579:1  |EV| 
0.63652124753084571295858040684834  |BT| (ROOT (CLASS (CPR9))(PP (NP (PP (NP (VP (NP (NN (conceptus)))(CONJP (RB (as))(RB (well))(IN (as)))(NP (JJ (endometrial))(NNS (epithelia)))(PP (RELATION (produce))(NP (NNP (chemical))(NN (PG))))(PP (IN (via))(NP (NNP (genepro))(NNP (genepro)))))))))(CC (and))(VP (CHEMICALPRI (CEM))(PP (IN (via))(NP (GENEPROPRI (GPRO)))))) |ET| 1:3 2:1 7:1 46:1 409:1 506:1 507:1 509:1 515:1 516:1 517:1 518:1 519:1 520:1 521:1 522:1 523:1 524:1 525:1  |EV| 
0.33762231049517704706275367243506  |BT| (ROOT (CLASS (CPR9))(VP (NP (PP (NP (DT (both))(NNP (chemical))(NNS (precursor)))))(PP (IN (i.e.))(NP (CHEMICALPRI (CEM))(CC (and))(NNP (chemical)))))(CC (and))(NP (GENEPROPRI (GPRO)))(VP (VBD (be))(ADVP (RELATION (identify)))(IN (as))(NP (DT (the))))) |ET| 1:3 2:1 46:1 263:1 341:1 342:1 343:1 344:1 345:1 346:1 347:1 348:1 349:1 350:1  |EV| 
0.46394160301823827996514637561631  |BT| (ROOT (CLASS (CPR9))(NP (PP (NP (DT (the))(NNP (genepro)))))(NP (NNP (genepro))(CC (and))(GENEPROPRI (GPRO))(NNP (genepro)))(NP (NNS (pathway)))(PP (NP (NN (synthesis))))(PP (IN (from))(NP (NNP (chemical))))(CC (and))(NP (CHEMICALPRI (CEM))(NN (respectively)))(PP (IN (in))(NP (NN (Arabidopsis))(NNS (shoot)))(PP (RELATION (be))(NP (CD (21)))))(: (:))) |ET| 1:3 2:1 4:1 243:1 266:1 1016:1 1417:1 1418:1 1420:1 1421:1 1426:1 1462:1 1463:1 1464:1 1465:1 1466:1 1467:1 1468:1  |EV| 
-0.064482928582161480601797620693105  |BT| (ROOT (PP (NP (PP (NP (PP (NP (DT (the))(NNP (genepro))))))))(CC (and))(GENEPROPRI (GPRO))(VP (VBP (receptors))(NP (DT (these))(VBN (substitute))(CHEMICALPRI (CEM)))(VP (VBP (do))(VP (VB (possess))(NP (JJ (intrinsic))))))) |ET| 1:2 243:1 1463:1 1464:1 10937:1 10938:1 10939:1 10940:1 10941:1 10942:1 10943:1 10944:1 10945:1 10946:1  |EV| 
-0.11635123642319762649055547854005  |BT| (ROOT (VP (NP (NN (synthesis)))(CC (but))(NP (DT (the))(CD (three))(JJ (specific))(GENEPROPRI (GPRO)))(VP (VBD (show))(NP (PP (NP (NN (synthesis)))))(PP (IN (in))(NP (NN (Caco-2))(NNS (cell)))(PP (IN (versus))(NP (CHEMICALPRI (CEM))(NN (sulphate)))))))) |ET| 1:2 266:2 1462:1 6888:1 6890:1 6893:1 6901:1 6902:1 6903:1 6904:1 6905:2 6906:1  |EV| 
-0.090485200926460757075986407471646  |BT| (ROOT (NP (PP (IN (of))(NP (NNP (chemical)))))(CC (and))(NP (CHEMICALPRI (CEM))(JJ (natural))(NN (products)))(PP (JJ (such))(NP (CC (and))(NP (NNP (chemical)))))(VP (VBD (be))(NP (RELATION (investigate)))(PP (IN (for))(NP (PRP$ (their))(JJ (inhibitory))))(PP (NP (DT (the))(NNP (genepro))(NNP (genepro))(GENEPROPRI (GPRO))(NNP (genepro)))))) |ET| 1:3 4:2 8:1 9:1 2604:1 3306:1 3346:1 3347:1 3348:1 3349:1 3350:1 3351:1 3352:1 3353:1 3354:1 3355:1  |EV| 
0.42330243577187909309600399865303  |BT| (ROOT (CLASS (CPR9))(PP (NP (PP (NP (PRP$ (our))(NNS (finding)))(PP (IN (with))(NP (ADJP (RB (structurally))(JJ (similar)))(CHEMICALPRI (CEM))(NNS (metabolite)))))))(VP (NP (NN (detoxification)))(PP (IN (of))(NP (CHEMICALPRI (CEM))(NNS (carcinogen))))(VP (VBD (be))(ADVP (RELATION (catalyze)))(PP (IN (by))(NP (NNP (genepro))(GENEPROPRI (GPRO)))(CC (and)))))) |ET| 1:3 2:1 100:1 613:1 614:1 615:1 616:1 617:1 618:1 619:1 621:1 622:1 623:1 625:1 629:1 630:1 631:1 632:1 633:1  |EV| 
0.45493676711311681337690515647409  |BT| (ROOT (CLASS (CPR9))(NP (NNS (-enantiomer)))(VP (VBD (be))(VP (VBN (synthesize))(CC (and))(RELATION (test))(PP (IN (for))(NP (NN (inhibition)))(PP (IN (of))(NP (NNP (chemical))(CHEMICALPRI (CEM)))(NX (NN (uptake)))(CC (and))(NX (NNP (chemical))(NN (binding)))))(PP (IN (in))(NP (NNP (genepro))(GENEPROPRI (GPRO)))(NX (JJ (wild-type)))(CC (and)))))) |ET| 1:3 2:1 67:1 100:1 127:1 128:1 130:1 139:1 140:1 141:1 142:1 143:1 144:1 145:1 146:1 147:1  |EV| 
0.64817821286810251013577044432168  |BT| (ROOT (CLASS (CPR9))(VP (NP (PP (NP (NN (induction)))(PP (IN (of))(NP (ADJP (JJ (hepatic))(CC (and))(JJ (intestinal)))(NNP (genepro))))))(VP (GENEPROPRI (GPRO))(PP (IN (in))(NP (NNS (rat)))(RELATION (use))(NP (NNP (chemical))(NNP (chemical)))(CC (and))(NP (NNP (chemical))(CHEMICALPRI (CEM))))))) |ET| 1:3 2:1 58:1 67:1 871:1 872:1 873:1 874:1 875:1 876:1 877:1 878:1 879:1 880:2 881:1  |EV| 
-0.16066050475660520469034509005724  |BT| (ROOT (NP (DT (These))(NNS (result)))(RELATION (confirm))(NP (DT (the))(JJ (selective))(GENEPROPRI (GPRO))(NN (agonist)))(CC (and))(NP (NNP (genepro))(NN (antagonist))(NNS (action)))(PP (IN (of))(NP (CHEMICALPRI (CEM))))) |ET| 1:3 47:1 180:1 538:1 2197:1 2322:1 2323:1 2324:1 2325:1  |EV| 
0.82419163636326620014926902513253  |BT| (ROOT (CLASS (CPR9))(NP (DT (These))(NNS (result)))(VP (VBP (suggest))(IN (that))(NP (GENEPROPRI (GPRO)))(VP (NP (ADJP (PP (VP (NP (PP (IN (of))(NP (GENEPROPRI (GPRO))(NN (activity)))))(PP (IN (in))(NP (NN (women))))(WHADVP (WRB (when)))(VP (RELATION (measure))(PP (IN (by))(NP (DT (the))(NN (metabolism))))(PP (IN (of))))))))))(CHEMICALPRI (CEM))) |ET| 1:3 2:1 46:1 538:1 595:1 596:1 597:1 598:1 599:1 600:1 601:1 602:1 603:1 604:1 605:1 606:1 607:1 608:1 609:1 610:1 611:1 612:1  |EV| 
0.75316209105547926583312801085413  |BT| (ROOT (CLASS (CPR9))(PP (IN (In))(NP (DT (the))(JJ (current))(NN (study))))(NP (PRP (we)))(VP (RELATION (determine))(NP (DT (the))(NN (effect)))(PP (IN (of))(NP (NN (over-expression)))(PP (IN (of))(NP (GENEPROPRI (GPRO)))))(PP (NP (DT (the))(NN (sensitivity)))(PP (IN (of))(NP (NN (HepG2))(NNS (cell)))))(PP (TO (to))(NP (CHEMICALPRI (CEM)))))) |ET| 1:3 2:1 46:1 47:1 49:1 539:1 641:1 1327:1 1328:1 1329:1 1330:1 1331:1 1332:1 1333:1 1334:1 1335:1 1336:1 1337:1 1338:1  |EV| 
0.6043473542974513446068840494263  |BT| (ROOT (CLASS (CPR9))(VP (NP (PP (IN (of))(NP (NNP (genepro))(CC (and))(GENEPROPRI (GPRO))))(WHNP (DT (both))(WHPP (IN (of))(WHNP (WDT (which)))))(VP (RELATION (catalyze))(NP (DT (the))(JJ (first))(CD (two)))(PP (NP (NNP (chemical))(NN (synthesis))))(PP (IN (from))(NP (CHEMICALPRI (CEM)))))))(CC (and))(WHNP (WDT (which)))(ADVP (RB (together)))) |ET| 1:3 2:1 47:1 375:2 422:1 424:1 1023:1 1422:1 1500:1 1502:1 1521:1 1522:1 1523:1 1524:1 1525:1 1526:1 1527:1 1528:1  |EV| 
-0.050551846731619151653625010567339  |BT| (ROOT (PP (NP (PP (TO (to))(NP (JJ (parenteral))(NN (delivery)))(PP (IN (of))(NP (GENEPROPRI (GPRO)))(WHNP (WDT (which)))(VP (NP (VP (PP (NP (CD (>1))(NN (LD50)))(PP (IN (of))(NP (NN (aer))))))))))))(CHEMICALPRI (CEM))(NP (NN (Px)))) |ET| 1:2 46:1 375:1 6916:1 6917:1 6918:1 6919:1 6920:1 6921:1 6922:1 6923:1 6924:1 6925:1 6926:1 6927:1 6928:1 6929:1 6930:1  |EV| 
-0.077512177192294348659906688681076  |BT| (ROOT (VP (VBG (Use))(NP (DT (the))(NNP (genepro))(NN (inhibitor))))(CHEMICALPRI (CEM))(NP (PRP (we)))(VP (NP (CC (and))(NP (JJ (sustained))(NN (activation)))(PP (IN (of))(NP (NNP (genepro))(CC (and))(GENEPROPRI (GPRO)))))(VP (VBD (be))))) |ET| 1:2 422:1 424:1 641:1 1130:1 4156:1 6179:1 6183:1 6184:1 6185:1 6186:1 6187:1  |EV| 
-0.060131816286680218885951632046272  |BT| (ROOT (VP (NP (NN (effect)))(PP (IN (of))(NP (NN (over-expression)))(PP (IN (of))(NP (GENEPROPRI (GPRO))(NN (mRNA)))))(PP (NP (PP (IN (of))(NP (NN (HepG2))(NNS (cell))))))(PP (TO (to))(NP (CHEMICALPRI (CEM))(NN (injury)))))) |ET| 1:2 1328:1 1329:1 1332:1 5110:1 5397:1 5972:1 13729:1 13730:1 13731:1 13732:1 13733:1 13734:2 13735:1  |EV| 
0.49408774519310688644324613960634  |BT| (ROOT (CLASS (CPR9))(NP (DT (These))(NNS (result)))(PP (RELATION (indicate))(NP (DT (a))(JJ (major))(NN (role)))(PP (IN (of))(NP (NNP (genepro))))(PP (IN (in))(NP (CHEMICALPRI (CEM))))(UCP (CC (and))(NP (DT (a))(JJ (significant))(NN (impact)))(PP (IN (of))(NP (DT (the))(GENEPROPRI (GPRO))))))) |ET| 1:3 2:1 47:1 56:1 148:1 538:1 858:1 859:1 860:1 861:1 862:1 863:1 864:1 865:1 866:1  |EV| 
0.50768285180328953654083079527481  |BT| (ROOT (CLASS (CPR9))(NP (JJ (Stable))(NNP (genepro))(GENEPROPRI (GPRO)))(VP (NP (PRP (it)))(ADJP (JJ (possible))(VP (TO (to))(VP (VB (demonstrate))(IN (that))(NP (NNP (genepro)))(VP (RELATION (mediate))(NP (ADJP (CC (and))(GENEPROPRI (GPRO)))(NP (DT (the))(JJ (apical))(NN (excretion)))(PP (IN (of))(NP (CHEMICALPRI (CEM))))))))))) |ET| 1:3 2:1 47:1 56:1 180:1 989:1 990:1 991:1 992:1 993:1 994:1 995:1 996:1 997:1 998:1 999:1 1000:1  |EV| 
0.41497226720019686485585452828673  |BT| (ROOT (CLASS (CPR9))(NP (DT (A))(JJ (broad-spectrum))(GENEPROPRI (GPRO)))(NP (NN (inhibitor)))(NP (NNP (chemical)))(NP (CD (1))(NN (mM))(NN (n=6)))(ADVP (RB (significantly)))(VP (RELATION (attenuate))(NP (NNP (chemical)))(VP (VBD (induce))(NP (CHEMICALPRI (CEM)))))) |ET| 1:3 2:1 4:2 47:1 556:1 557:1 558:1 559:1 560:1 561:1 562:1 563:1  |EV| 
-0.082394709280537270501554303336889  |BT| (ROOT (NP (CC (Both))(NP (NNP (genepro)))(CC (and))(NP (CHEMICALPRI (CEM))))(VP (VBG (promote))(NP (NNS (agent))))(VP (VBD (activate))(NP (GENEPROPRI (GPRO))))) |ET| 1:2 46:1 47:1 56:1 8673:1 13472:1 13473:1 13474:1 13475:1 13476:1  |EV| 
-0.047751512928884388975436792179607  |BT| (ROOT (NP (NNP (genepro)))(ADVP (RB (specifically)))(VP (VBZ (interfere))(IN (with))(NP (GENEPROPRI (GPRO))(NN (activation)))(PP (IN (by))(NP (NNP (genepro))))(VP (VBZ (reduce))))(CHEMICALPRI (CEM))(CC (and))(NP (NNP (chemical)))) |ET| 1:2 4:1 56:2 74:1 4513:1 5274:1 6383:1 6384:1 6385:1 6386:1  |EV| 
-0.06862685447940725103066483825387  |BT| (ROOT (NP (CHEMICALPRI (CEM)))(VP (NP (VP (PP (TO (to))(NP (PRP$ (their))(VBG (correspond))(JJ (active))(NNS (form)))))(WHNP (WDT (which)))(VP (RELATION (inhibit))(NP (NN (DNA))(NN (synthesis)))(PP (IN (via))(NP (NN (inhibition)))(PP (IN (of))(NP (NNP (genepro))))))))(GENEPROPRI (GPRO))) |ET| 1:3 47:1 56:1 127:1 375:1 858:1 2604:1 3510:1 3511:1 3512:1 3513:1 3514:1 3515:1 3516:1 3517:1 3518:1 3519:1  |EV| 
0.61868504720216044301395186266745  |BT| (ROOT (CLASS (CPR9))(PP (NP (NN (model)))(NP (NNS (substrate))(NNP (chemical))(CHEMICALPRI (CEM))(CC (and))(NNP (chemical))(NNP (chemical)))(VP (VBD (be))(ADVP (RELATION (determine)))(PP (IN (in))(NP (DT (the))(NN (absence)))(PP (NP (VP (NP (VP (ADVP (RB (stably)))(VBG (express))(NP (CC (either))(GENEPROPRI (GPRO))(CC (or))(NNP (genepro)))))))))))) |ET| 1:3 2:1 432:1 467:1 1139:1 1140:1 1141:1 1142:1 1143:1 1144:1 1145:1 1146:1 1147:1 1148:1 1149:1 1150:2 1151:1  |EV| 
0.48135816108085893727519533058512  |BT| (ROOT (CLASS (CPR9))(PP (NP (VBN (radiolabele))(NN (model)))(NP (NNS (substrate))(NNP (chemical))(NNP (chemical))(CC (and))(CHEMICALPRI (CEM))(NNP (chemical)))(VP (VBD (be))(ADVP (RELATION (determine)))(PP (NP (PP (NP (VP (NP (NNS (cell)))(VP (ADVP (RB (stably)))(VBG (express))(NP (CC (either))(NNP (genepro))(CC (or))(GENEPROPRI (GPRO)))))))))))) |ET| 1:3 2:1 80:1 467:1 1139:1 1163:1 1164:1 1165:1 1166:1 1167:1 1168:1 1169:1 1170:1 1171:1 1172:1 1173:2 1174:1  |EV| 
0.43661603101944695959346631752851  |BT| (ROOT (CLASS (CPR9))(PP (IN (of))(NP (DT (the))(VBN (radiolabele))(NN (model)))(NP (NNS (substrate))(NNP (chemical))(CHEMICALPRI (CEM))(CC (and))(NNP (chemical))(NNP (chemical)))(VP (VBD (be))(ADVP (RELATION (determine)))(PP (NP (PP (NP (VP (NP (NNS (cell)))(VP (ADVP (RB (stably)))(VBG (express))(NP (CC (either))(NNP (genepro))(CC (or))(GENEPROPRI (GPRO)))))))))))) |ET| 1:3 2:1 80:1 467:1 1139:1 1142:1 1164:1 1166:1 1167:1 1168:1 1169:1 1170:1 1171:1 1172:1 1175:1 1176:2 1177:1  |EV| 
-0.14969463488944331763796924406051  |BT| (ROOT (VP (NP (NNS (cell)))(ADVP (RB (stably)))(VP (VBG (express))(NP (NNP (genepro))(CC (and))(GENEPROPRI (GPRO)))))(NP (PRP (it)))(VP (VBD (be))(VP (VBN (find))(IN (that))(NP (CHEMICALPRI (CEM)))(VP (VBD (inhibit)))))) |ET| 1:2 47:1 80:1 422:1 989:1 1139:1 6556:1 6557:1 6558:1 6559:1 6560:1 6561:1 6562:1  |EV| 
-0.071310513420476895340982537163654  |BT| (ROOT (NP (NN (Ntp)))(VP (VBD (open))(NP (NNP (genepro))(GENEPROPRI (GPRO)))(PP (NP (DT (the))(NN (absence)))(PP (IN (of))(NP (JJ (stimulatory))(NN (Mg))(HYPH (-))))))(CHEMICALPRI (CEM))) |ET| 1:2 100:1 1140:1 7221:1 7222:1 7223:1 7224:1 7225:1 7226:1 7227:1  |EV| 
-0.028765420305156826769055200543335  |BT| (ROOT (NP (CC (Neither))(NNP (chemical))(NEGCC (nor))(CHEMICALPRI (CEM)))(VP (VBD (cause))(NP (NN (down-regulation)))(PP (IN (of))(NP (DT (the))(GENEPROPRI (GPRO)))))) |ET| 1:2 148:1 862:1 2962:1 8237:1 8238:1 8239:1 8240:1  |EV| 
0.46907288511610933934292688718415  |BT| (ROOT (CLASS (CPR9))(NP (JJ (Firstly))(JJ (transgenic))(NNS (plant)))(VP (VBG (overexpresse))(PP (GENEPROPRI (GPRO))(NP (NNP (genepro))(NNP (genepro)))))(VP (VBD (be))(RELATION (use))(VP (TO (to))(VP (PP (NP (DT (the))(NN (function)))(PP (IN (of))(NP (NNP (genepro)))))(PP (IN (in))(NP (CHEMICALPRI (CEM))(NN (metabolism)))))))) |ET| 1:3 2:1 7:1 56:1 433:1 858:1 1132:1 1444:1 1445:1 1454:1 1455:1 1456:1 1457:1 1458:1 1459:1 1460:1 1461:1  |EV| 
0.6849051806828694299866810979438  |BT| (ROOT (CLASS (CPR9))(VP (NP (RB (only))(DT (a))(JJ (small))(NN (role)))(PP (IN (in))(NP (CHEMICALPRI (CEM))(NN (synthesis)))(PP (NP (DT (the))(NN (case)))(PP (IN (of))(NP (NN (roots))(NNS (result)))))))(RELATION (indicate))(IN (that))(VP (PP (NP (ADJP (JJR (high)))(NN (contribution)))(PP (IN (from))(NP (DT (the))(NNP (genepro)))))(GENEPROPRI (GPRO))(ADVP (NN (route))))) |ET| 1:3 2:1 243:1 1271:1 1429:1 1430:1 1431:1 1432:1 1433:1 1434:1 1435:1 1436:1 1437:1 1438:1 1439:1 1440:1 1441:1 1442:1 1443:1  |EV| 
0.43952211015701808660693927777174  |BT| (ROOT (CLASS (CPR9))(PP (IN (Of))(NP (DT (the))(CD (2))(NNS (gene)))(PP (GENEPROPRI (GPRO))(NP (NNP (genepro))))(VP (VBG (encode))(NP (NNP (genepro)))(NP (DT (the))(NN (enzyme)))(WHNP (WDT (that)))(VP (RELATION (synthesize)))))(CHEMICALPRI (CEM))) |ET| 1:3 2:1 56:2 298:1 404:1 841:1 1047:1 1048:1 1049:1 1050:1 1051:1 1052:1  |EV| 
-0.049821371747963423548544170671448  |BT| (ROOT (NP (CD (Three))(NNS (mutant)))(PP (GENEPROPRI (GPRO))(NP (NNP (genepro))))(VP (NP (DT (a))(JJ (large))(NN (increase)))(PP (IN (in))(NP (CHEMICALPRI (CEM))(NN (sensitivity)))))) |ET| 1:2 56:1 298:1 5614:1 9906:1 9907:1 9908:1 9909:1 9910:1 9911:1  |EV| 
-0.072213135287129720518706221810135  |BT| (ROOT (NP (PP (IN (of))(NP (CHEMICALPRI (CEM))(CD (3))(NN (microM))))(WHNP (WDT (that)))(VP (VBZ (block))(NP (NNP (genepro)))))(VP (NP (LS (ecto))(GENEPROPRI (GPRO))(NN (activity))))) |ET| 1:2 56:1 404:1 8002:1 8003:1 8004:1 8005:1 8006:1 8007:1 8008:1 8009:1  |EV| 
-0.026505398595935633632159067474277  |BT| (ROOT (VP (PP (NP (NN (lipopolysaccharide))(NN (LPS))))(NP (JJ (-induced))(NNP (chemical))(CHEMICALPRI (CEM)))(NN (production))(PP (NP (NN (RAW264.7))(NN (mouse))(NN (macrophages)))))(CC (and))(PP (GENEPROPRI (GPRO))(NP (NNP (genepro))))) |ET| 1:2 56:1 298:1 8241:1 8242:1 8243:1 8244:1 8245:1 8246:1 8247:1 8248:1  |EV| 
0.46429147625496308693371361187019  |BT| (ROOT (CLASS (CPR9))(VP (PP (NP (NNS (level)))(PP (IN (for))(NP (NNP (genepro))(GENEPROPRI (GPRO)))(PP (NP (DT (the))(NN (rate))(RELATION (limit)))(NN (enzyme)))))(PP (IN (in))(NP (NN (synthesis)))(PP (IN (of))(NP (DT (the))(NNP (chemical))(CHEMICALPRI (CEM)))(PP (NP (DT (the))(JJ (obligate)))))))) |ET| 1:3 2:1 100:1 264:1 266:1 267:1 269:1 271:1 273:1 285:1 286:1 287:1 288:1 289:1 290:2 291:1  |EV| 
0.49664124296902084632066021185892  |BT| (ROOT (CLASS (CPR9))(VP (PP (NP (NNS (level)))(PP (IN (for))(NP (NNP (genepro))(GENEPROPRI (GPRO)))(PP (NP (DT (the))(NN (rate))(RELATION (limit)))(NN (enzyme)))))(PP (IN (in))(NP (NN (synthesis)))(PP (IN (of))(NP (DT (the))(CHEMICALPRI (CEM))(NNP (chemical)))(PP (NP (DT (the)))))))) |ET| 1:3 2:1 100:1 263:1 264:1 265:1 266:1 267:1 268:1 269:1 270:1 271:1 272:1 273:1 274:2 275:1  |EV| 
0.74736090010743627676248479474452  |BT| (ROOT (CLASS (CPR9))(VP (NP (VP (VBG (include))(NP (DT (the))(NN (inhibition)))(PP (IN (of))(NP (NNP (genepro))(CC (and))(GENEPROPRI (GPRO))))))(VP (VBD (catalyze))(NP (NNP (chemical))(NN (metabolism)))(PP (IN (by))(NP (NNP (chemical))))))(VP (VBD (be))(PRT (RELATION (develop)))(VP (TO (to))(VP (VB (describe))(NP (NN (blood))))))(NP (NNP (chemical))(NNP (chemical)))(CC (and))(NP (CHEMICALPRI (CEM)))) |ET| 1:3 2:1 4:1 47:1 58:1 416:1 417:1 418:1 419:1 420:1 421:1 422:1 423:1 424:1 425:1 426:1 427:1 428:1 429:1 430:1 431:1  |EV| 
-0.089078872651629129042483157263632  |BT| (ROOT (VP (NP (NNS (level)))(PP (IN (of))(NP (NNP (genepro))(NNP (genepro)))(CC (and))(NP (NNP (genepro))(GENEPROPRI (GPRO))))(NP (PP (NP (NNP (genepro))(NNS (gene)))))(PP (IN (with))))(CC (and/or))(VP (IN (without))(NP (NNP (chemical))))(CHEMICALPRI (CEM))) |ET| 1:2 4:1 7:1 100:1 264:1 828:1 8385:1 8386:1 8387:1 8396:1 8412:1 8419:1 8420:1 8421:1  |EV| 
-0.052237663776477927246588706111652  |BT| (ROOT (NP (NNP (chemical))(NNP (chemical)))(PP (CHEMICALPRI (CEM))(NP (NNP (chemical))))(VP (PP (NP (NN (respectively)))))(CC (but))(VP (NEGVBD (do))(NEGRB (not))(ADVP (RB (significantly)))(VP (VB (inhibit))))(GENEPROPRI (GPRO))) |ET| 1:2 4:1 58:1 557:1 2397:1 8704:1 8902:1 8903:1 8904:1 8905:1 8909:1 8910:1  |EV| 
-0.081086814942609747314250512317813  |BT| (ROOT (VP (VBP (describe))(NP (DT (the))(NN (function)))(PP (IN (of))(NP (NNP (chemical)))(PP (IN (in))(NP (CHEMICALPRI (CEM))))))(VP (NP (JJ (structural))(NNS (effect)))(IN (that))(VP (NNP (chemical))(NP (NNS (exert)))(PP (IN (on)))))(GENEPROPRI (GPRO))) |ET| 1:2 4:1 47:1 860:1 1132:1 4377:1 7667:1 7668:1 7669:1 7670:1 7671:1 7672:1 7673:1 7674:1  |EV| 
0.52172692685711297144734999164939  |BT| (ROOT (CLASS (CPR9))(NP (GENEPROPRI (GPRO)))(VP (NP (PP (NP (NN (beta-family)))(PP (IN (of))(NP (ADJP (NNP (chemical))(JJ (dependent)))(NN (PLP))(NN (enzymes))))))(PP (RELATION (catalyze))(NP (PP (NP (CC (and))(NNP (chemical))))))(VP (TO (to))(VP (VB (yield))(NP (NNP (chemical))(CC (or))(CHEMICALPRI (CEM))))))) |ET| 1:3 2:1 46:1 121:1 900:1 902:1 903:1 904:1 906:1 907:1 922:1 923:1 924:1 925:1 926:1 927:1 928:1 929:1 930:1  |EV| 
0.42301230973960179948534232607926  |BT| (ROOT (CLASS (CPR9))(NP (GENEPROPRI (GPRO)))(VP (NP (PP (NP (NN (beta-family)))(PP (IN (of))(NP (ADJP (NNP (chemical))(JJ (dependent)))(NN (PLP))(NN (enzymes))))))(PP (RELATION (catalyze))(NP (PP (IN (of))(NP (NNP (chemical))(CC (and))(NNP (chemical))))))(VP (TO (to))(VP (VB (yield))(NP (CHEMICALPRI (CEM))))))) |ET| 1:3 2:1 46:1 47:1 170:1 171:1 900:1 902:1 903:1 904:1 906:1 907:1 915:1 916:1 917:1 918:1 919:1 920:1 921:1  |EV| 
0.56432408071433681762130163406255  |BT| (ROOT (CLASS (CPR9))(ADJP (JJ (Stable))(PP (GENEPROPRI (GPRO))))(VP (NP (PRP (it)))(ADJP (JJ (possible))(VP (TO (to))(VP (VB (demonstrate))(IN (that))(NP (GENEPROPRI (GPRO)))(VP (RELATION (mediate))(NP (CC (and))(NP (NNP (genepro)))))))))(NP (DT (the))(JJ (apical))(NN (excretion)))(PP (IN (of))(NP (CHEMICALPRI (CEM))))) |ET| 1:3 2:1 46:1 47:1 56:1 89:1 180:1 989:1 991:1 1001:1 1002:1 1003:1 1004:1 1005:1 1006:1 1007:1 1008:1 1009:1  |EV| 
-0.062060453221400531387264010163562  |BT| (ROOT (NP (CHEMICALPRI (CEM))(NNS (analogue)))(RELATION (inhibit))(NP (GENEPROPRI (GPRO)))) |ET| 1:3 46:1 2604:1 2780:1 2781:1 2782:1  |EV| 
-0.13572989433618523613667150584661  |BT| (ROOT (PP (IN (In))(NP (NN (addition)))(ADJP (NNP (chemical))(JJ (dependent))))(NP (GENEPROPRI (GPRO)))(VP (VBD (be))(VP (VBN (require))(PP (IN (for))(NP (DT (the))(NN (inhibition)))(PP (IN (of))(NP (CHEMICALPRI (CEM)))))))) |ET| 1:2 46:1 47:1 180:1 197:1 418:1 902:1 7462:1 7463:1 7464:1 7465:1 7466:1 7467:1  |EV| 
-0.041493295994667028780966688827903  |BT| (ROOT (NP (CHEMICALPRI (CEM)))(NP (JJ (nonsteroidal))(JJ (anti-inflammatory))(NNS (drug)))(ADVP (RB (selectively)))(RELATION (inhibit))(NP (GENEPROPRI (GPRO)))) |ET| 1:3 46:1 47:1 1612:1 2604:1 3139:1 3713:1 3714:1  |EV| 
0.62175857405460888127635143973748  |BT| (ROOT (CLASS (CPR9))(VP (PP (NP (VP (NP (VP (VBN (mediate))(ADVP (RB (primarily)))(PP (IN (by))(NP (NNP (chemical)))(VP (VBN (form))(PP (IN (from))(NP (GENEPROPRI (GPRO))(RELATION (generate))(NNP (chemical))(CC (and))(CHEMICALPRI (CEM))))))))))))) |ET| 1:3 2:1 4:1 351:1 352:1 353:1 354:1 355:1 356:1 357:1 358:1 359:1 360:1 361:2 362:1  |EV| 
0.56783359656455090203053259756416  |BT| (ROOT (CLASS (CPR9))(VP (NP (DT (an))(JJ (indirect))(NN (effect)))(PP (IN (on))(NP (GENEPROPRI (GPRO))(NN (activity)))(WHNP (WDT (which)))(VP (RELATION (lead))(PP (TO (to))(NP (DT (an))(NN (increase))))(PP (IN (in))(NP (CHEMICALPRI (CEM))(NN (production)))(PP (IN (in)))))))) |ET| 1:3 2:1 188:1 375:1 492:1 600:1 1513:1 1514:1 1515:1 1516:1 1517:1 1518:1 1519:2 1520:1  |EV| 
0.25321070458134586900200702075381  |BT| (ROOT (CLASS (CPR9))(ADJP (PP (NP (PP (IN (of))(NP (NNP (chemical))(GENEPROPRI (GPRO))(NNP (genepro)))))))(PP (ADVP (RB (also)))(RELATION (catalyse))(NP (DT (the))(JJ (reversible))(NN (transamination)))(PP (IN (of))(NP (NNP (chemical)))(PP (TO (to))(NP (CHEMICALPRI (CEM))(NNP (genepro))(NNP (genepro))))))) |ET| 1:3 2:1 3:1 4:1 936:1 941:1 942:1 943:1 944:1 945:1 966:1 967:1 968:1 971:1 972:1 973:1  |EV| 
-0.099404921316056216173961956883431  |BT| (ROOT (NP (NNS (ewe)))(VP (VBD (receive))(NP (NN (vehicle))(NNP (chemical))(CHEMICALPRI (CEM)))(NN (PF))(NP (PP (NP (CC (and))(NNP (chemical)))))(NP (JJ (recombinant))(JJ (ovine))(GENEPROPRI (GPRO)))(CC (or)))) |ET| 1:2 121:1 922:1 923:1 7481:1 7482:1 7483:1 7484:1 7485:1 7486:1  |EV| 
-0.019721891622832717766433674455584  |BT| (ROOT (NP (NN (production)))(PP (IN (of))(NP (JJ (intracellular))(JJ (reactive))(CHEMICALPRI (CEM))(NNS (specie))(NNS (ROS))))(VP (PP (NP (VP (PP (NP (PP (VP (NP (NN (ROS)))(NP (PRP (itself))))(CC (and))(VP (VBG (inhibit))(NP (GENEPROPRI (GPRO))(NN (activity)))))))))))) |ET| 1:2 600:1 954:1 7578:1 12534:1 12535:1 12536:1 12537:1 12538:1 12539:1 12540:1 12541:1 12542:1 12543:1 12544:1 12545:1 12546:1 12547:1  |EV| 
-0.063156279261443043493429172485776  |BT| (ROOT (NP (UCP (NP (NN (gene))(NN (expression)))(VP (VBN (associate))(PP (IN (with))(NP (CHEMICALPRI (CEM))(NN (metabolism)))(VP (NP (DT (a))(JJ (significant))(NN (decrease)))(PP (IN (in))(NP (GENEPROPRI (GPRO))(NN (activity)))))))))) |ET| 1:2 379:1 433:1 600:1 10785:1 10786:1 10787:1 10788:1 10789:1 10790:1 10791:2 10792:1  |EV| 
0.57535463645529649756582557529327  |BT| (ROOT (CLASS (CPR9))(PP (IN (In))(NP (NN (general))))(NP (CHEMICALPRI (CEM)))(VP (MD (can))(VP (VB (act))(PP (IN (on))(NP (DT (a))(NN (pattern:))(CHEMICALPRI (CEM)))(PP (RELATION (activate))(NP (DT (the))(NNP (genepro))))(WHNP (IN (that)))(PP (IN (in))(NP (NN (turn))))(VP (VBZ (affect))(NP (GENEPROPRI (GPRO)))))))) |ET| 1:3 2:1 46:1 47:1 243:1 316:1 317:1 318:1 319:1 320:1 321:1 322:1 323:1 324:1 325:1 326:1 327:1 328:1  |EV| 
0.61916217960382846641209653171245  |BT| (ROOT (CLASS (CPR9))(NP (DT (These))(NNS (result)))(VP (VBP (suggest))(IN (that))(NP (GENEPROPRI (GPRO)))(VP (MD (may))(VP (VB (be))(VP (ADVP (RB (functionally)))(RELATION (express))(VP (PP (NP (VP (VBN (relate))(PP (TO (to))(NP (DT (the))(JJ (cytoprotective))(NN (property)))(PP (IN (of))))))))))))(CHEMICALPRI (CEM))) |ET| 1:3 2:1 46:1 538:1 595:1 1529:1 1530:1 1531:1 1532:1 1533:1 1534:1 1535:1 1536:1 1537:1 1538:1 1539:1 1540:1 1541:1  |EV| 
0.56244499724955543396021084845415  |BT| (ROOT (CLASS (CPR9))(NP (GENEPROPRI (GPRO)))(VP (NP (PP (NP (VP (VBN (link))(PP (TO (to))(NP (NNP (genepro))(NN (cytoskeleton))(NNS (dynamic)))(WHNP (WDT (that)))(VP (RELATION (phosphorylate))(NP (NNP (chemical))(NNP (chemical)))(VP (TO (to))(VP (VB (generate))(NP (NNP (chemical))))))))))))(CHEMICALPRI (CEM))) |ET| 1:3 2:1 4:1 46:1 58:1 404:1 674:1 675:1 676:1 677:1 678:1 679:1 680:1 681:1 682:1 683:1 684:1 685:1  |EV| 
-0.12713307900497383684523811098188  |BT| (ROOT (NP (NNP (chemical)))(NP (CD (10.0))(NN (mg/kg)))(VP (RELATION (have))(PP (IN (than))(NP (JJ (other))(NN (CB))(NN (agonists)))(CC (and))(NP (DT (the))(GENEPROPRI (GPRO))(NN (agonist)))))(NP (NNP (chemical))(CHEMICALPRI (CEM)))) |ET| 1:3 4:1 67:1 2197:1 2219:1 2239:1 2246:1 2247:1 2248:1 2249:1 2250:1  |EV| 
-0.084477415753013859744946500995866  |BT| (ROOT (VP (NP (VP (NP (PP (NP (PP (IN (of))(NP (ADJP (JJ (hepatic))(CC (and))(JJ (intestinal)))(GENEPROPRI (GPRO))(NNP (genepro)))))))(PP (IN (in))(NP (NNS (rat)))(RELATION (use))(NP (NNP (chemical))(CHEMICALPRI (CEM)))(CC (and))(NP (NNP (chemical)))))))) |ET| 1:3 4:1 67:1 871:1 873:1 4182:1 4867:1 4868:1 4869:1 4870:1 4871:1 4872:1 4873:1 4874:1 4875:2 4876:1  |EV| 
-0.216755557460556080862090766459  |BT| (ROOT (NP (NNP (chemical)))(CC (and))(NP (CHEMICALPRI (CEM))(NNP (chemical))(GENEPROPRI (GPRO)))(NN (agonist))(RELATION (constrict))) |ET| 1:3 4:1 2197:1 2509:1 2510:1 2511:1  |EV| 
0.55547955166992657449753778564627  |BT| (ROOT (CLASS (CPR9))(VP (VBN (show))(VP (TO (to))(VP (VB (enhance))(NP (DT (the))(NNS (activity)))(PP (IN (of))(NP (GENEPROPRI (GPRO))(CC (and))(NNP (genepro))))(WHNP (DT (both))(WHPP (IN (of))(WHNP (WDT (which)))))(VP (RELATION (catalyze))(NP (DT (the))(JJ (first))(CD (two))(NNS (step)))(PP (IN (of))(NP (CHEMICALPRI (CEM))))))))) |ET| 1:3 2:1 47:1 180:1 375:1 434:1 435:1 1499:1 1500:1 1501:1 1502:1 1503:1 1504:1 1505:1 1506:2 1507:1  |EV| 
0.53007345209876921554581485906965  |BT| (ROOT (CLASS (CPR9))(VP (CHEMICALPRI (CEM)))(VP (VB (freeze))(NP (NN (tolerance)))(PP (IN (of))(NP (NNP (Saccharomyces))(NNP (cerevisiae)))))(VP (VBP (be))(ADVP (RELATION (cause))(PP (NP (NN (mutation)))(PP (IN (in))(NP (DT (the))(NNP (genepro))(NN (gene))))))(VP (VBG (encode))))(GENEPROPRI (GPRO))) |ET| 1:3 2:1 840:1 1486:1 1487:1 1488:1 1489:1 1490:1 1491:1 1492:1 1493:1 1494:1 1495:1 1496:1 1497:1 1498:1  |EV| 
0.50114434843105448713629357371246  |BT| (ROOT (CLASS (CPR9))(NP (NN (subunit)))(VP (VBZ (have))(VP (VBN (be))(VP (VBN (clone))(CC (and))(RELATION (show))(VP (TO (to))(VP (VB (lower))(NP (DT (the))(NN (K))(NN (m)))(PP (IN (of))(VP (GENEPROPRI (GPRO))(NP (DT (the))(NNP (genepro))(NN (product)))(PP (IN (for))(NP (CHEMICALPRI (CEM))))))))(CC (and)))))) |ET| 1:3 2:1 47:1 798:1 1053:1 1054:1 1055:1 1056:1 1057:1 1058:1 1059:1 1060:1 1061:1 1062:1 1063:1 1064:1  |EV| 
-0.049312821542199687663288187877697  |BT| (ROOT (VP (PP (NP (JJ (anxiolytic))(NNS (property)))(WHNP (WDT (which)))(VP (VBZ (inhibit))(PP (GENEPROPRI (GPRO))))(VP (NP (PP (NP (CHEMICALPRI (CEM))))))))) |ET| 1:2 47:1 89:1 375:1 1186:1 1187:1 12137:1 12196:1 12197:1 12198:1 12199:2 12200:1  |EV| 
-0.02657930408658022713996871289055  |BT| (ROOT (VP (ADJP (PP (NP (NN (amplification)))(PP (IN (of))(NP (DT (the))(NN (response))))))(PP (TO (to))(NP (CHEMICALPRI (CEM))))(CC (and))(PP (NP (NN (agonists)))(VP (VBG (include))(NP (NNP (chemical))(NNP (chemical)))(PP (NP (GENEPROPRI (GPRO))(CC (and)))))))) |ET| 1:2 47:1 58:1 539:1 1834:1 5216:1 6495:1 6502:1 6503:1 6504:1 6505:1 6506:1 6507:1 6508:1 6509:2 6510:1  |EV| 
-0.06524141462742831520937869527188  |BT| (ROOT (VP (NP (DT (a))(ADJP (NNP (chemical))(JJ (dependent)))(NN (enzyme)))(GENEPROPRI (GPRO))(WHNP (WDT (that)))(VP (PP (NP (PP (NP (NAC (PP (NP (NN (protein)))))(NNP (genepro))))))(PP (IN (upon))(WHNP (WDT (which)))(NP (CHEMICALPRI (CEM))(NN (cluster))))))) |ET| 1:2 375:1 404:1 902:1 14078:1 14079:1 14080:1 14081:1 14082:1 14083:1 14084:1 14085:1 14086:1 14087:1 14088:1 14089:2 14090:1  |EV| 
0.47133136813790477148700119869318  |BT| (ROOT (CLASS (CPR9))(NP (JJ (Total))(NNP (chemical))(RELATION (be)))(ADJP (PP (IN (with))(NP (JJ (previous))(NNS (report)))(PP (IN (of))(NP (DT (an))(ADJP (JJ (impaired)))(GENEPROPRI (GPRO)))(PP (IN (for))(NP (DT (the))(NN (conversion)))(PP (IN (of))(NP (NNP (chemical))(CC (and))(CHEMICALPRI (CEM))))))))) |ET| 1:3 2:1 154:1 155:1 156:1 157:1 158:1 159:1 160:1 161:1 162:1 163:1 164:1 165:1 166:1  |EV| 
0.41223442042433006138324458333955  |BT| (ROOT (CLASS (CPR9))(VP (NP (JJ (little))(NN (change)))(PP (IN (in))(NP (NN (mRNA))(NNS (level)))(PP (IN (for))(NP (GENEPROPRI (GPRO))(NNP (genepro)))(PP (NP (DT (the))(NN (rate))(RELATION (limit)))(NN (enzyme)))))(PP (IN (in))(NP (NN (synthesis)))(PP (IN (of))(NP (DT (the))(CHEMICALPRI (CEM))))))) |ET| 1:3 2:1 109:1 266:1 267:1 269:1 276:1 277:1 278:1 279:1 280:1 281:1 282:1 283:2 284:1  |EV| 
0.51036703431316232659753495681798  |BT| (ROOT (CLASS (CPR9))(NP (WHNP (NN (extent))(WHPP (TO (to))(WHNP (WDT (which)))))(NP (CD (six))(VBN (substitute))(CHEMICALPRI (CEM))(NNS (derivative)))(VP (ADVP (CD (1-6)))(RELATION (affect))(NP (DT (the))(NN (function)))(PP (IN (of))(NP (NNP (genepro))(CC (and))(GENEPROPRI (GPRO)))))(VP (VBD (be))))) |ET| 1:3 2:1 375:1 422:1 424:1 1130:1 1131:1 1132:1 1133:1 1134:1 1135:1 1136:1 1137:2 1138:1  |EV| 
-0.071300708969428680528146458073024  |BT| (ROOT (NP (CD (1-19))(NN (4P)))(PP (IN (on))(NP (NNP (chemical))(NN (bioavailability))))(NP (GENEPROPRI (GPRO)))(NP (NN (bioavailability))(NN (retention)))(NX (NN (transport)))(CC (and))(NX (NN (uptake)))(PP (IN (of))(VP (CHEMICALPRI (CEM))))) |ET| 1:2 46:1 139:1 840:1 1218:1 6708:1 6866:1 6868:1 6884:1 6885:1 6886:1 6887:1  |EV| 
-0.04431553363867465900050035543245  |BT| (ROOT (VP (PP (VP (NP (VP (VBP (act))(PP (IN (by))(VP (VBG (reduce))(NP (DT (the))(CHEMICALPRI (CEM))(NN (bridge)))(ADJP (PP (IN (in))(NP (DT (the))(NNP (genepro)))(PP (IN (of))))))))))))(GENEPROPRI (GPRO))) |ET| 1:2 243:1 595:1 10047:1 10048:1 10049:1 10050:1 10051:1 10052:1 10053:1 10054:1 10055:1 10056:1 10057:1 10058:1  |EV| 
-0.024499371338552448917891268820313  |BT| (ROOT (NP (VP (PP (NP (DT (the))(NN (influence)))(PP (IN (of))(NP (CD (two))(NNS (pool)))(PP (IN (of))(NP (GENEPROPRI (GPRO))))))))(NP (NN (bioavailability))(NN (retention)))(NX (NN (transport)))(CC (and))(NX (NN (uptake)))(PP (IN (of))(VP (CHEMICALPRI (CEM))))) |ET| 1:2 46:1 49:1 139:1 840:1 1218:1 6709:1 6866:1 6867:1 6868:1 6869:1 6870:1 6871:1 6872:1 6873:1 6874:1  |EV| 
0.49578681004011332378311749380373  |BT| (ROOT (CLASS (CPR9))(NP (DT (The))(NNP (genepro)))(VP (VBN (mutate))(PP (GENEPROPRI (GPRO))(NP (RELATION (show))(JJR (high))(NN (activity)))(PP (NP (NN (chain)))(NP (NNP (chemical))(NN (activity)))(PP (IN (toward))(NP (CHEMICALPRI (CEM))))(VP (VBD (be))(NP (ADJP (RB (1250-fold))))))))) |ET| 1:3 2:1 47:1 1107:1 1108:1 1109:1 1110:1 1111:1 1112:1 1113:1 1114:1 1115:1 1116:1 1117:1 1118:1 1119:1  |EV| 
0.55108012029884390070577637743554  |BT| (ROOT (CLASS (CPR9))(PP (NP (NNP (chemical))(CC (and))(CHEMICALPRI (CEM))(NNP (chemical)))(VP (VBD (be))(ADVP (RELATION (determine)))(PP (IN (in))(NP (DT (the))(NN (absence))(CC (and)))(PP (NP (VP (NP (VP (VBG (express))(NP (CC (either))(GENEPROPRI (GPRO))(CC (or))(NNP (genepro)))))))))))) |ET| 1:3 2:1 467:1 1141:1 1152:1 1153:1 1154:1 1155:1 1156:1 1157:1 1158:1 1159:1 1160:1 1161:2 1162:1  |EV| 
0.19747782934836760615482376124419  |BT| (ROOT (CLASS (CPR9))(NP (CD (One))(JJ (major))(NN (route)))(PP (RELATION (involve))(NP (DT (the))(NNP (chemical))(NNP (chemical))))(NP (PP (NP (NNP (genepro)))))(CC (and))(NP (NNP (genepro))(GENEPROPRI (GPRO))(NNP (genepro)))(PP (IN (with))(NP (NNP (chemical))(CHEMICALPRI (CEM)))(PP (IN (as))(NP (CD (one))(NNP (chemical)))))) |ET| 1:3 2:1 56:1 67:1 810:1 829:1 830:1 1375:1 1392:1 1393:1 1406:1 1407:1 1408:1 1409:1 1410:1  |EV| 
-0.066579084511296959814075080430484  |BT| (ROOT (IN (Furthermore))(NP (DT (the))(NN (up-regulation)))(PP (IN (of))(NP (NNP (genepro))(CC (and))(GENEPROPRI (GPRO))))(VP (VBD (be))(NP (RELATION (find)))(PP (IN (in))(NP (DT (the))(CHEMICALPRI (CEM)))))) |ET| 1:3 278:1 422:1 424:1 4182:1 4247:1 4248:1 4249:1 4250:1 4251:1 4252:1  |EV| 
-0.087340350793524756944918863155181  |BT| (ROOT (NP (DT (The))(NNS (result)))(VP (VBD (show))(IN (that))(NP (CHEMICALPRI (CEM)))(VP (RELATION (promote))(NP (DT (the))(NN (expression)))(PP (IN (of))(NP (NNP (genepro))(CC (and))(GENEPROPRI (GPRO))))))) |ET| 1:3 47:1 422:1 424:1 770:1 3634:1 4182:1 5070:1 5071:1 5072:1 5073:1  |EV| 
-0.089854773454721884040630186518683  |BT| (ROOT (VP (NP (DT (a))(VBN (decrease))(NN (expression)))(PP (IN (of))(NP (NNP (genepro))(CC (and))(GENEPROPRI (GPRO)))))(CC (and))(VP (RELATION (inhibit))(NP (DT (the))(JJ (regulatory))(NN (effect)))(PP (IN (of))(NP (CHEMICALPRI (CEM)))))) |ET| 1:3 47:1 180:1 422:1 424:1 4182:1 4563:1 4564:1 4565:1 4566:1 4567:1 4568:1  |EV| 
0.46633023124377626089653858798556  |BT| (ROOT (CLASS (CPR9))(NP (JJ (Total))(NNP (chemical)))(VP (RELATION (be))(ADJP (PP (NP (PP (NP (GENEPROPRI (GPRO)))(PP (NP (NN (conversion)))(PP (IN (of))(NP (NNP (chemical))(CC (and))(NNP (chemical)))))))))(PP (TO (to))))(CHEMICALPRI (CEM))) |ET| 1:3 2:1 46:1 167:1 168:1 169:1 170:1 171:1 172:1 173:1 174:1 175:1 176:1 177:1 178:1 179:1  |EV| 
0.40883416178308562560772543292842  |BT| (ROOT (CLASS (CPR9))(NP (NN (Possession)))(PP (IN (of))(NP (ADJP (GENEPROPRI (GPRO))(CC (or))(GENEPROPRI (GPRO))(CD (3)))(JJ (variant))(NN (alleles)))(WHNP (WDT (which)))(VP (RELATION (result))))(VP (PP (NP (DT (a))(JJ (significant))(NN (decrease)))(PP (IN (in))(NP (DT (the))(JJ (mean))(CHEMICALPRI (CEM))))))) |ET| 1:3 2:1 375:1 376:1 377:1 378:1 379:1 380:1 381:1 382:1 383:1 384:1 385:1 386:1 387:1  |EV| 
0.46891934539375335067035166503047  |BT| (ROOT (CLASS (CPR9))(VP (NP (CONJP (RB (as))(RB (well))(IN (as)))(NP (DT (the))(NN (impact)))(PP (IN (of))(NP (GENEPROPRI (GPRO))))(WHNP (WDT (that)))(VP (VBZ (affect))(NP (NNP (chemical))(NN (PK)))(CC (and))(NP (RELATION (determine))(NNP (chemical))(NN (O-demethylation)))(VP (TO (to))(VP (VB (produce)))))))(CHEMICALPRI (CEM))) |ET| 1:3 2:1 46:1 49:1 404:1 405:1 406:1 407:1 408:1 409:1 410:1 411:1 412:1 413:1 414:1 415:1  |EV| 
-0.024357662434354752228893303822588  |BT| (ROOT (VP (NP (ADJP (PP (NP (NNP (chemical))(CC (and))(NNP (chemical)))))(JJ (sensitive))(NN (subtype)))(PP (IN (of))(NP (GENEPROPRI (GPRO))))(VP (VBZ (be))(VP (PP (NP (VP (VBZ (be))(NP (JJ (independent)))(PP (IN (of))(NP (DT (the))(NN (accumulation)))(PP (IN (of))))))))))(CHEMICALPRI (CEM))) |ET| 1:2 46:1 49:1 170:1 595:1 2127:1 5867:1 6993:1 14344:1 14345:1 14346:1 14347:1 14348:1 14349:1 14350:1 14351:1 14352:1 14353:1 14354:1  |EV| 
-0.072864364330906039590729506016942  |BT| (ROOT (VP (NP (PP (IN (of))(NP (NN (age))(NNS (difference)))(PP (IN (on))(NP (CHEMICALPRI (CEM))(NN (cataract)))(PP (NP (PP (NP (NNP (genepro)))))))))(CONJP (RB (as))(RB (well))(IN (as)))(NP (GENEPROPRI (GPRO))(NN (activity))))) |ET| 1:2 56:1 409:1 600:1 829:1 830:1 10802:1 14533:1 14534:1 14546:1 14547:1 14548:1 14549:2 14550:1  |EV| 
-0.058672646024977008483158869012186  |BT| (ROOT (VP (NP (PP (NP (NN (enzyme)))(VP (ADVP (RB (functionally)))(VBN (link))(PP (TO (to))(NP (GENEPROPRI (GPRO))(NN (cytoskeleton))(NNS (dynamic)))(WHNP (WDT (that)))(VP (VBZ (phosphorylate))(NP (CHEMICALPRI (CEM))(NNP (chemical)))(VP (TO (to)))))))))) |ET| 1:2 21:1 404:1 1269:1 1529:1 8781:1 8782:1 8783:1 8784:1 8785:1 8786:1 8787:1 8788:2 8789:1  |EV| 
0.43610677853024892858257999250782  |BT| (ROOT (CLASS (CPR9))(VP (NP (PP (IN (of))(NP (NNP (genepro))(CC (and))(GENEPROPRI (GPRO))))(WHNP (DT (both))(WHPP (IN (of))(WHNP (WDT (which)))))(VP (RELATION (catalyze))(NP (DT (the))(JJ (first))(CD (two))(NNS (step)))(PP (IN (of))(NP (CHEMICALPRI (CEM))(NN (synthesis))))(PP (IN (from))(NP (NNP (chemical)))))))) |ET| 1:3 2:1 4:1 375:1 422:1 424:1 1016:1 1271:1 1500:1 1501:1 1502:1 1508:1 1509:1 1510:1 1511:2 1512:1  |EV| 
0.31156989517302996484104937735538  |BT| (ROOT (CLASS (CPR9))(PP (NP (PP (NP (NNP (chemical))(NNP (genepro)))))(GENEPROPRI (GPRO))(CONJP (RB (also))(RELATION (catalyse)))(NP (DT (the))(JJ (reversible))(NN (transamination)))(PP (IN (of))(NP (CHEMICALPRI (CEM)))(PP (TO (to))(NP (NNP (chemical))(NNP (genepro))(NNP (genepro))))))) |ET| 1:3 2:1 47:1 931:1 932:1 933:1 934:1 935:1 936:1 937:1 938:1 939:2 940:1  |EV| 
0.42105047928077365959609323908808  |BT| (ROOT (CLASS (CPR9))(VP (TO (to))(VP (VB (evaluate))(NP (DT (the))(NN (brain))(NN (distribution)))(PP (IN (of))(NP (CHEMICALPRI (CEM))))))(VP (NP (NN (efflux)))(PP (IN (by))(NP (NNP (genepro))(NNP (genepro))(CC (and))(NNP (genepro))))(VP (GENEPROPRI (GPRO))(VP (RELATION (restrict)))))) |ET| 1:3 2:1 47:1 180:1 448:1 449:1 579:1 580:1 581:1 582:1 583:1 584:1 585:1 586:1 587:1  |EV| 
-0.16719772407794389335045082134457  |BT| (ROOT (NP (DT (The))(NN (ARB))(CHEMICALPRI (CEM)))(VP (VBZ (be))(NP (DT (a))(JJ (nonbiphenyl))(NN (nontetrazole)))(NP (NNP (genepro))(GENEPROPRI (GPRO)))(NN (antagonist))(WHNP (WDT (which)))(VP (RELATION (act))))) |ET| 1:3 100:1 375:1 1542:1 2002:1 2003:1 2004:1 2005:1 2006:1 2007:1  |EV| 
-0.056596010751217715184502310421522  |BT| (ROOT (NP (DT (The))(NN (ARB))(CHEMICALPRI (CEM)))(VP (VBZ (be))(NP (DT (a))(JJ (nonbiphenyl))(NN (nontetrazole)))(PP (GENEPROPRI (GPRO))(NP (NNP (genepro))(NN (antagonist))))(WHNP (WDT (which)))(VP (RELATION (act))))) |ET| 1:3 375:1 1542:1 1945:1 2002:1 2003:1 2004:1 2008:1 2009:1 2010:1 2011:1  |EV| 
-0.18230056143199904750140660780744  |BT| (ROOT (NP (NNP (chemical))(CHEMICALPRI (CEM)))(RELATION (be))(NP (DT (an))(JJ (endogenous))(GENEPROPRI (GPRO))(NN (antagonist)))(PP (IN (at))(NP (DT (the))))) |ET| 1:3 67:1 263:1 1542:1 1972:1 1973:1 1974:1 1975:1  |EV| 
0.43499709359110783069013450585771  |BT| (ROOT (CLASS (CPR9))(PP (NP (PP (NP (NN (20 µM))))(NP (DT (the))(ADJP (RBS (most))(JJ (active)))(CHEMICALPRI (CEM))(NN (glucuronidation))(NNS (catalyst)))(VP (VBD (be))(NP (GENEPROPRI (GPRO))(RELATION (follow)))(PP (IN (by))(NP (NNP (genepro)))))))) |ET| 1:3 2:1 30:1 34:1 40:1 56:1 73:1 74:1 75:1 76:1 77:1 78:2 79:1  |EV| 
0.42840889444821372844529605572461  |BT| (ROOT (CLASS (CPR9))(VP (NP (NN (fraction)))(PP (IN (of))(NP (DT (the))(JJ (interindividual))(NN (variation)))(PP (IN (in))(NP (CHEMICALPRI (CEM))(NN (dose)))(CC (and))(NP (NNP (genepro)))))(VP (RELATION (have))(NP (DT (an))(ADJP (RB (approximately))(JJ (three-fold)))(JJR (great))(NN (effect)))(PP (IN (than)))))(GENEPROPRI (GPRO))) |ET| 1:3 2:1 56:1 363:1 364:1 365:1 366:1 367:1 368:1 369:1 370:1 371:1 372:1 373:1 374:1  |EV| 
0.41398202272124867695524130795093  |BT| (ROOT (CLASS (CPR9))(NP (PP (NP (NNP (genepro)))(PP (IN (by))(NP (NNP (genepro))(NN (siRNA))))))(ADJP (RB (significantly))(PP (RELATION (decrease))(NP (JJ (acid-induced))(NN (increase)))))(PP (IN (in))(NP (GENEPROPRI (GPRO))(NN (expression))(NNP (chemical))(NN (incorporation)))(CC (and))(NP (CHEMICALPRI (CEM))(NN (production))))) |ET| 1:3 2:1 56:1 490:1 491:1 492:1 493:1 494:1 495:1 496:1 497:1 498:1 499:1 500:1 501:1  |EV| 
-0.05934414410374760223687573557072  |BT| (ROOT (NP (PP (NP (NN (S)))(PP (NP (DT (a))(NN (variant))(VBG (lack))(GENEPROPRI (GPRO)))(PP (IN (by))(NP (NNP (genepro))(NN (siRNA)))))))(VP (PP (NP (NN (expression))(NNP (chemical)))(NP (NN (incorporation)))(CC (and))(NP (CHEMICALPRI (CEM))(NN (production)))))) |ET| 1:2 490:1 492:1 493:1 7421:1 7422:1 7424:1 7444:1 7445:1 7446:1 7447:1 7448:1 7449:1 7450:1 7451:1  |EV| 
-0.07555033382246276185689737303619  |BT| (ROOT (NP (NNS (HUVEC)))(VP (VBD (be))(VP (VBN (stimulate))(PP (IN (by))(NP (ADJP (GENEPROPRI (GPRO))(PP (IN (in))(NP (PP (NP (NNP (chemical))(NNP (genepro)))))))(NN (activity))))))(CC (and))(NP (CHEMICALPRI (CEM))(NN (release)))) |ET| 1:2 931:1 933:1 934:1 6146:1 14201:1 14208:1 14209:1 14210:1 14211:1 14212:1 14213:1 14214:1 14215:1  |EV| 
-0.046594594132232984573516176851626  |BT| (ROOT (NP (PRP (We)))(ADVP (RB (previously)))(VP (VBD (employ))(NP (DT (a))(CHEMICALPRI (CEM))(JJ (genomic)))(VP (PP (NP (NN (inhibitor)))(PP (IN (of))(NP (DT (the))(NNP (genepro))))(VP (VBG (target))(NP (NNP (genepro)))))))(GENEPROPRI (GPRO))) |ET| 1:2 18:1 56:1 243:1 245:1 556:1 8090:1 11420:1 11427:1 11428:1 11429:1 11430:1 11431:1 11432:1  |EV| 
0.46039920570051484638440797425574  |BT| (ROOT (CLASS (CPR9))(: (Methods:))(VP (ADVP (NP (DT (The))(NN (stability)))(PP (IN (of))(NP (CD (six))))(CHEMICALPRI (CEM))(PP (IN (in))(NP (DT (the))(NN (presence)))(PP (IN (of))(NP (NNP (genepro))(GENEPROPRI (GPRO))))(CC (and))(NP (NNP (chemical))(NN (pH)))(NP (CD (7.4))(NN (37°C)))))(VBD (be)))(RELATION (investigate))) |ET| 1:3 2:1 100:1 198:1 696:1 697:1 698:1 699:1 700:1 701:1 702:1 703:1 704:1 705:1 706:1  |EV| 
0.27237024024781758546609466975497  |BT| (ROOT (CLASS (CPR9))(NP (CD (One))(JJ (major))(NN (route)))(PP (RELATION (involve))(NP (DT (the))(NNP (chemical))))(NP (PP (NP (NNP (genepro))(NNP (genepro))(NNP (genepro)))))(CC (and))(NP (GENEPROPRI (GPRO))(NNP (genepro))(NNP (genepro)))(PP (IN (with))(NP (NNP (chemical))(CHEMICALPRI (CEM)))(PP (IN (as))(NP (CD (one)))))) |ET| 1:3 2:1 67:1 112:1 825:1 1374:1 1375:1 1376:1 1377:1 1389:1 1401:1 1402:1 1403:1 1404:1 1405:1  |EV| 
0.11508846357745836086472479564691  |BT| (ROOT (CLASS (CPR9))(NP (CD (One))(JJ (major))(NN (route)))(PP (RELATION (involve))(NP (DT (the))(NNP (chemical))))(NP (NNS (activity)))(PP (IN (of))(NP (DT (the))(NNP (genepro))(GENEPROPRI (GPRO))(NNP (genepro))))(CC (and))(NP (NNP (genepro))(NNP (genepro)))(PP (IN (with))(NP (NNP (chemical))(CHEMICALPRI (CEM)))(PP (IN (as))(NP (CD (one)))))) |ET| 1:3 2:1 7:1 67:1 112:1 481:1 1374:1 1375:1 1377:1 1378:1 1380:1 1389:1 1403:1 1411:1 1412:1  |EV| 
-0.17323273997374402655147207497066  |BT| (ROOT (NP (DT (The))(NN (effect)))(PP (IN (of))(NP (NNP (chemical))))(PP (IN (on))(NP (CHEMICALPRI (CEM)))(CC (and))(NP (NNP (genepro))(NNP (genepro))))(PP (IN (in))(NP (NN (control))(CC (and))(GENEPROPRI (GPRO))))) |ET| 1:2 4:1 7:1 8:1 47:1 3545:1 12381:1 12382:1 12383:1 12384:1 12385:1  |EV| 
-0.10917632084618841825651713861589  |BT| (ROOT (NP (DT (These))(NNS (result)))(VP (VBP (indicate))(IN (that))(NP (CHEMICALPRI (CEM))(NNS (metabolite)))(VP (VBP (modulate))(NP (GENEPROPRI (GPRO)))))) |ET| 1:2 46:1 538:1 9317:1 9318:1 9319:1 9320:1 9321:1  |EV| 
-0.10401280723221940915923511283836  |BT| (ROOT (NP (JJ (Colonic))(NNP (genepro)))(CC (and))(NP (GENEPROPRI (GPRO)))(VP (VBN (down-regulate))(PP (IN (by))(NP (NNP (chemical)))))(CC (but))(VP (NEGRB (not))(PP (IN (by))))(CHEMICALPRI (CEM))) |ET| 1:2 4:1 46:1 238:1 419:1 13079:1 13083:1 13084:1 13085:1 13086:1  |EV| 
0.46046695090962058705130743874179  |BT| (ROOT (CLASS (CPR9))(NP (DT (The))(NN (ratio)))(PP (IN (between))(NP (DT (the))(GENEPROPRI (GPRO))))(NP (NNP (genepro)))(NP (NNS (pathway)))(PP (IN (of))(NP (NNP (chemical))(NN (synthesis))))(PP (IN (from))(NP (CHEMICALPRI (CEM))))(CC (and))(NP (NNP (chemical))(NN (respectively)))(PP (IN (in))(NP (NN (Arabidopsis))(NNS (shoot)))(PP (RELATION (be))(NP (CD (21)))))) |ET| 1:3 2:1 47:1 56:1 148:1 1023:1 1417:1 1418:1 1419:1 1420:1 1421:1 1422:1 1423:1 1424:1 1425:1 1426:1 1427:1 1428:1  |EV| 
0.38915563163770916510486586048501  |BT| (ROOT (CLASS (CPR9))(NP (PP (NP (NNP (genepro)))))(VP (MD (could))(VP (VB (aid))(PP (IN (in))(NP (RELATION (predict))(NN (tumor))(NN (response))))(PP (TO (to))(NP (CHEMICALPRI (CEM))(NN (depletion))))(PP (IN (with)))))(GENEPROPRI (GPRO))) |ET| 1:3 2:1 56:1 828:1 829:1 830:1 831:1 832:1 833:1 834:1 835:1 836:1 837:1 838:1  |EV| 
0.36715552360641023899034962596488  |BT| (ROOT (CLASS (CPR9))(NP (JJ (Platelet-induced))(GENEPROPRI (GPRO))(ADJP (JJ (dependent))(CHEMICALPRI (CEM)))(NN (synthesis)))(PP (IN (in))(NP (NN (HT29))(NNS (cell))))(VP (VBD (be))(ADVP (RELATION (involve)))(VP (PP (VP (NP (JJ (selective))(GENEPROPRI (GPRO)))))))) |ET| 1:3 2:1 329:1 330:1 331:1 332:1 333:1 334:1 335:1 336:1 337:1 338:1 339:1 340:1  |EV| 
-0.067845886386045550775492074535578  |BT| (ROOT (VP (NP (PP (NP (NNP (genepro))(NNP (genepro))(NNP (genepro)))))(CC (and))(NP (NNP (genepro))(GENEPROPRI (GPRO))(NNP (genepro)))(PP (IN (with))(NP (NNP (chemical))(NNP (chemical)))(PP (IN (as))(NP (CD (one))(CHEMICALPRI (CEM))(NNP (chemical))))))) |ET| 1:2 58:1 810:1 1376:1 1401:1 1402:1 13859:1 13860:1 13861:1 13862:2 13863:1  |EV| 
-0.093725786410789879710137029178441  |BT| (ROOT (NP (GENEPROPRI (GPRO))(NN (inhibition)))(VP (VBD (be))(ADVP (RELATION (determine)))(PP (VP (NP (PP (VP (PP (NP (CD (15))(NN (mg))(NNP (chemical)))(CC (and))(NP (CD (75))(NN (mg))(CHEMICALPRI (CEM))))))))))) |ET| 1:3 467:1 2604:1 2926:1 2935:1 2936:1 2937:1 2938:1 2939:1 2940:1 2941:1 2942:1 2943:1 2944:1 2945:1  |EV| 
-0.057949299249291534585903917786709  |BT| (ROOT (NP (NN (induction)))(VP (VBZ (be))(VP (VBN (trigger))(PP (IN (by))(NP (CHEMICALPRI (CEM))(NN (depletion)))(CC (and))(NP (DT (the))(GENEPROPRI (GPRO))(NNP (genepro))))))) |ET| 1:2 831:1 872:1 1384:1 6094:1 6095:1 6096:1 6097:1 6098:1  |EV| 
0.31878684051243832975330860790564  |BT| (ROOT (CLASS (CPR9))(IN (In))(NP (NN (kidneys))(NN (stimulation)))(PP (IN (of))(NP (NNP (genepro))(RELATION (cause)))(PP (IN (of))(NP (NNP (chemical))(NN (conversion))))(PP (IN (of))(NP (NNP (chemical)))))(VP (TO (to))(VP (CHEMICALPRI (CEM))(PP (IN (by))(NP (GENEPROPRI (GPRO))))))) |ET| 1:3 2:1 4:1 8:1 46:1 546:1 547:1 548:1 549:1 550:1 551:1 552:1 553:1 554:1 555:1  |EV| 
0.16962151676411990619541825253691  |BT| (ROOT (CLASS (CPR9))(NP (CC (Both))(NP (NNP (chemical)))(CC (and))(NP (CHEMICALPRI (CEM))))(VP (VBP (be))(NP (NNS (substrate)))(PP (IN (of))(NP (NNP (genepro))(GENEPROPRI (GPRO)))(PP (NP (DT (a))(NN (transport))(NN (protein))(RELATION (involve)))(PP (IN (in))(NP (NN (drug)))))))) |ET| 1:3 2:1 4:1 47:1 100:1 1298:1 1301:1 1302:1 1315:1 1316:1 1317:1 1318:1 1319:1 1320:1 1321:1  |EV| 
0.17577763638415550007110255137377  |BT| (ROOT (CLASS (CPR9))(NP (CC (Both))(NP (CHEMICALPRI (CEM)))(CC (and))(NP (NNP (chemical))))(VP (VBP (be))(NP (NNS (substrate)))(PP (IN (of))(NP (NNP (genepro))(GENEPROPRI (GPRO)))(PP (NP (DT (a))(NN (transport))(NN (protein))(RELATION (involve)))(PP (IN (in))(NP (NN (drug)))))))) |ET| 1:3 2:1 4:1 47:1 100:1 1298:1 1301:1 1315:1 1316:1 1317:1 1318:1 1319:1 1322:1 1323:1 1324:1  |EV| 
-0.07502934583503031995554977129359  |BT| (ROOT (VP (NP (DT (the))(NN (enzyme))(NN (activity)))(PP (IN (of))(NP (NNP (genepro))(GENEPROPRI (GPRO))))(VP (NP (PP (NP (NNS (enzyme)))))(PP (TO (to))(NP (DT (the))(NN (sensitivity)))(PP (IN (of))))))(CHEMICALPRI (CEM))) |ET| 1:2 100:1 198:1 595:1 1227:1 1330:1 12581:1 12582:1 12583:1 12584:1 12585:1 12586:1 12587:1 12588:1  |EV| 
-0.058419832558873445449432182385863  |BT| (ROOT (VP (NP (JJ (crystal))(NNS (structure)))(PP (IN (of))(NP (NNP (genepro))(GENEPROPRI (GPRO))))(CC (and)))(VP (VB (identify))(NP (NNP (chemical))(NN (serine))(CC (and))(CHEMICALPRI (CEM))(NN (tyrosine))))) |ET| 1:2 100:1 198:1 14595:1 14596:1 14614:1 14615:1 14618:1 14619:1  |EV| 
-0.055799625371016292607606601450243  |BT| (ROOT (NP (NNS (Inhibitor)))(PP (IN (of))(NP (NNP (genepro))(NN (function)))(PP (CHEMICALPRI (CEM))(NP (DT (a))(JJ (dominant-negative))(NN (form)))(PP (IN (of))(NP (NNP (genepro))(GENEPROPRI (GPRO))))))) |ET| 1:2 100:1 198:1 7020:1 7021:1 7022:1 7023:1 7024:1 7025:1 7026:1  |EV| 
0.27920581455312198926321798353456  |BT| (ROOT (CLASS (CPR9))(NP (GENEPROPRI (GPRO)))(VP (NP (VP (VBZ (bind))(NP (NNP (genepro)))(PP (IN (with))(NP (JJ (high))(NN (affinity))(CC (and))(RELATION (mediate))))(CC (both))(NP (DT (the))(JJ (selective))(NN (lipid))(NN (uptake)))(PP (IN (of))(VP (CHEMICALPRI (CEM)))))))) |ET| 1:3 2:1 46:1 56:1 840:1 1218:1 1219:1 1220:1 1221:1 1222:1 1223:1 1224:1 1225:1 1226:1  |EV| 
0.35362175412841451160872452419426  |BT| (ROOT (CLASS (CPR9))(NP (JJ (Firstly))(JJ (transgenic))(NNS (plant)))(VP (VBG (overexpresse))(NP (NNP (genepro))(GENEPROPRI (GPRO))(NNP (genepro))))(VP (VBD (be))(RELATION (use))(VP (TO (to))(VP (PP (NP (DT (the))(NN (function)))(PP (IN (of))(NP (GENEPROPRI (GPRO)))(PP (IN (in))(NP (CHEMICALPRI (CEM))(NN (metabolism)))))))))) |ET| 1:3 2:1 46:1 433:1 810:1 1132:1 1444:1 1445:1 1446:1 1447:1 1448:1 1449:1 1450:1 1451:1 1452:1 1453:1  |EV| 
0.1706129511447667668200267598877  |BT| (ROOT (CLASS (CPR9))(NP (NNP (chemical))(CHEMICALPRI (CEM)))(VP (VBZ (be))(NP (DT (a))(JJ (mutagenic))(NNP (chemical))(RELATION (produce)))(PP (NP (NN (injury)))(WHNP (WDT (that)))(VP (VBZ (be))(VP (VBN (conjugate))(PP (IN (by))(NP (JJ (several))(GENEPROPRI (GPRO))))))))) |ET| 1:3 2:1 67:1 404:1 1351:1 1360:1 1361:1 1362:1 1363:1 1364:1 1365:1 1366:1 1369:1 1370:1  |EV| 
-0.073415748273541248103413181524957  |BT| (ROOT (PP (NP (NN (conclusion))(RB (only))))(NP (JJ (specific))(JJ (apical))(GENEPROPRI (GPRO))(NN (inhibition)))(VP (VBD (increase))(NP (NN (DBS)))(IN (whereas))(NP (CHEMICALPRI (CEM))(NN (synthesis))))) |ET| 1:2 1271:1 8428:1 8429:1 8430:1 8431:1 8432:1 8433:1 8434:1  |EV| 
-0.086544352628537102312122897274094  |BT| (ROOT (NP (NN (blood))(NNS (index)))(PP (IN (of))(NP (NNP (genepro))))(NP (GENEPROPRI (GPRO))(NNP (genepro))(NNP (genepro))(NNP (genepro))(CHEMICALPRI (CEM))(NN (antigen)))) |ET| 1:2 56:1 858:1 14384:1 14385:1 14386:1 14387:1  |EV| 
-0.078297200028111774150474388989096  |BT| (ROOT (NP (PP (IN (of))(NP (NNP (genepro)))))(NP (NNP (genepro))(GENEPROPRI (GPRO))(NNP (genepro))(NNP (genepro))(NNP (genepro))(NNP (genepro))(CHEMICALPRI (CEM))(NN (antigen)))) |ET| 1:2 56:1 858:1 4082:1 14388:1 14389:1 14390:1  |EV| 
0.38432805500134897824793256404519  |BT| (ROOT (CLASS (CPR9))(PP (IN (First))(NP (NN (addition)))(PP (IN (of))(NP (NNP (genepro))(GENEPROPRI (GPRO)))))(NP (DT (a)))(PP (NP (NNP (genepro))(NNP (genepro))(JJ (-secreted))(NN (lipids))))(VP (RELATION (increase))(NP (CHEMICALPRI (CEM))(NN (secretion)))(PP (IN (in))))) |ET| 1:3 2:1 100:1 188:1 190:1 192:1 196:1 197:1 198:1 199:1 200:1 201:1 202:1 203:1  |EV| 
0.50453987746570616579333545814734  |BT| (ROOT (CLASS (CPR9))(PP (NP (PP (NP (PRP$ (our))(NNS (finding)))(PP (IN (with))(NP (ADJP (RB (structurally))(JJ (similar)))(CHEMICALPRI (CEM))(NNS (metabolite)))))))(VP (NP (NN (detoxification)))(PP (IN (of))(NP (CHEMICALPRI (CEM))(NNS (carcinogen))))(VP (VBD (be))(ADVP (RELATION (catalyze)))(PP (IN (by))(NP (NNP (genepro))(NNP (genepro)))(CC (and))(NP (GENEPROPRI (GPRO))(NNP (genepro))))))) |ET| 1:3 2:1 7:1 109:1 613:1 614:1 615:1 616:1 617:1 618:1 619:1 620:1 621:1 622:1 623:1 624:1 625:1 626:1 627:1 628:1  |EV| 
0.39752738207990134799985071367701  |BT| (ROOT (CLASS (CPR9))(SYM (+))(NP (NNS (-enantiomer)))(VP (VBD (be))(VP (VBN (synthesize))(CC (and))(RELATION (test))(PP (IN (for))(NP (NN (inhibition)))(PP (IN (of))(NP (CHEMICALPRI (CEM))(NX (NNP (chemical))(NN (uptake)))(CC (and))(NX (NNP (chemical))(NN (binding)))(PP (IN (in))(NP (GENEPROPRI (GPRO))(NNP (genepro)))))))))) |ET| 1:3 2:1 109:1 127:1 128:1 129:1 130:1 131:1 132:1 133:1 134:1 135:1 136:1 137:1 138:1  |EV| 
-0.062213031097871039631908018918693  |BT| (ROOT (NP (DT (No))(NNS (mutation)))(PP (IN (in))(NP (DT (the))(CHEMICALPRI (CEM))(JJ (related))(NNP (genepro))(CC (and))(GENEPROPRI (GPRO))(NNS (gene))))(PP (IN (in)))) |ET| 1:2 188:1 9296:1 9297:1 9298:1 9299:1 9300:1  |EV| 
-0.056219838601809117573093743658319  |BT| (ROOT (PP (NP (PP (NP (DT (a))(JJ (specific))(NN (inhibitor)))(PP (IN (of))(NP (GENEPROPRI (GPRO))(NNP (genepro)))(VP (NP (JJ (first))(JJ (rate-limiting))(NN (enzyme)))(PP (IN (for))(NP (CHEMICALPRI (CEM))(NN (biosynthesis)))))))))) |ET| 1:2 109:1 1472:1 1473:1 6387:1 14237:1 14238:1 14239:1 14240:1 14241:1 14242:2 14243:1  |EV| 
-0.067748524233669060734541744750459  |BT| (ROOT (NP (NNP (genepro))(NNP (genepro))(NNP (genepro))(CHEMICALPRI (CEM))(NN (antigen)))(NP (NNP (genepro))(CD (19.9)))(CC (and))(NP (GENEPROPRI (GPRO))(NNP (genepro)))(VP (VBD (be)))) |ET| 1:2 109:1 1130:1 14403:1 14404:1 14405:1 14406:1  |EV| 
-0.065447589796808147699636037941673  |BT| (ROOT (PP (IN (In))(NP (DT (the))(JJ (current))(NN (study))))(NP (PRP (we)))(VP (RELATION (reveal))(NP (DT (the))(JJ (inhibitory))(NNS (effect)))(PP (IN (of))(NP (CHEMICALPRI (CEM))))(PP (NP (PP (NP (PP (NP (DT (a))(JJ (dual))(NN (probe))(NN (substrate)))(PP (IN (of))(NP (GENEPROPRI (GPRO))))))))))) |ET| 1:3 46:1 47:1 49:1 180:1 641:1 1331:1 1333:1 2604:1 3839:1 3856:1 3857:1 3858:1 3859:1 3860:1 3861:1 3862:1 3863:1 3864:1  |EV| 
-0.095479421379604051400846742581052  |BT| (ROOT (VP (PP (NP (NN (platelet))(NN (agonists)))(VP (VBG (include))(NP (NNP (chemical))(CHEMICALPRI (CEM)))(PP (NP (NNP (genepro))))(CC (and)))))(GENEPROPRI (GPRO))) |ET| 1:2 56:1 67:1 829:1 6518:1 6523:1 6524:1 6525:1 6526:1 6527:1  |EV| 
-0.060872433026313496617909493124898  |BT| (ROOT (PP (NP (NNS (cell)))(VP (ADVP (RB (stably)))(VBN (transfecte))(PP (IN (with))(NP (GENEPROPRI (GPRO))(NN (WT))))))(VP (NP (NN (ligand)))(ADJP (JJ (dependent))))(NP (NNP (genepro)))(VP (VBN (mediate))(NP (CHEMICALPRI (CEM))(NN (autophosphorylation))))) |ET| 1:2 56:1 80:1 482:1 1139:1 9640:1 9641:1 9642:1 9643:1 9644:1 9645:1 9646:1 9647:1 9648:1 9649:1  |EV| 
0.11426868641541770843517156208691  |BT| (ROOT (CLASS (CPR9))(NP (CHEMICALPRI (CEM))(NNP (chemical)))(VP (VBZ (be))(ADVP (RELATION (synthesize)))(PP (NP (PP (NP (DT (the))(NN (action)))(PP (IN (of))(NP (NNP (genepro))(NNP (genepro)))(CC (and))(NP (GENEPROPRI (GPRO))))))))) |ET| 1:3 2:1 7:1 21:1 46:1 742:1 750:1 761:1 762:1 763:1 764:1 765:1 766:1 767:1  |EV| 
0.33512390040020390014063877970329  |BT| (ROOT (CLASS (CPR9))(PP (IN (Objective:))(NP (DT (This))(NN (study))))(RELATION (explore))(NP (DT (the))(NN (ability)))(PP (IN (of))(VP (CHEMICALPRI (CEM))(VP (VB (act))(PP (IN (as))(NP (NNS (substrate))(CC (or))(NNS (inhibitor)))(PP (IN (of))(NP (GENEPROPRI (GPRO))))))))) |ET| 1:3 2:1 46:1 49:1 707:1 708:1 709:1 710:1 711:1 712:1 713:1 714:1 715:1 716:1  |EV| 
-0.12728244980265410180031437903381  |BT| (ROOT (NP (DT (The))(GENEPROPRI (GPRO))(NN (agonist)))(CHEMICALPRI (CEM))(ADJP (NNP (chemical))(CD (0.001-0.1))(NN (μM)))(RELATION (do))) |ET| 1:3 2197:1 2517:1 2518:1 2519:1 2520:1  |EV| 
-0.12728244980265465691182669161208  |BT| (ROOT (NP (DT (The))(GENEPROPRI (GPRO))(NN (agonist))(NNP (chemical)))(CHEMICALPRI (CEM))(NP (CD (0.001-0.1))(NN (μM)))(RELATION (do))) |ET| 1:3 2197:1 2521:1 2522:1 2523:1 2524:1  |EV| 
-0.06708590090695124019681827576278  |BT| (ROOT (NP (JJ (Direct-acting))(GENEPROPRI (GPRO)))(PP (IN (agonists))(NP (RELATION (include))(CHEMICALPRI (CEM))))) |ET| 1:3 2197:1 2205:1 2206:1 2207:1 2208:1 2209:1  |EV| 
-0.09627498137464546301700352159969  |BT| (ROOT (VP (ADVP (RB (normally)))(VBZ (transfer))(NP (NNP (chemical)))(PP (IN (from))(NP (NNP (chemical))))(VP (TO (to))(VP (CHEMICALPRI (CEM))(PP (IN (in))(NP (DT (the))(NN (presence)))(PP (IN (of))(NP (NNP (chemical))(NN (ion))(GENEPROPRI (GPRO))))))))) |ET| 1:2 4:2 5:1 699:1 1016:1 5837:1 5838:1 5839:1 5840:1 5841:1 5842:2 5843:1  |EV| 
-0.076695333254667485967104312294396  |BT| (ROOT (VP (NEGVBZ (do))(VP (NEGRB (not))(VP (VB (oxidize))(NP (CD (eight))(JJ (representative))(JJ (antitumor))(CHEMICALPRI (CEM)))(VP (NP (PP (IN (of))(NP (DT (the))(NN (oxidation)))(PP (IN (of))(NP (NNP (chemical))))))(PP (IN (by))(NP (GENEPROPRI (GPRO))))))))) |ET| 1:2 4:1 8:1 46:1 549:1 10185:1 10186:1 10187:1 10188:1 10189:1 10190:1 10191:1 10192:2 10193:1  |EV| 
-0.05685350145402585236853454375705  |BT| (ROOT (VP (NP (ADJP (NP (PP (NP (CC (and))(JJ (relative))(NN (binding))(NNS (affinity))))))(NNS (RBA)))(PP (IN (for))(NP (GENEPROPRI (GPRO)))))(VP (NP (PP (NP (JJ (aromatic))(NN (A-ring))(NNS (derivative))))(PP (IN (of))(NP (NNP (chemical))(CC (and))(CHEMICALPRI (CEM))))))) |ET| 1:2 46:1 158:1 160:1 460:1 10756:1 10757:1 10758:1 10759:1 10760:1 10761:1 10762:1 10763:1 10764:1 10765:1 10766:1 10767:1  |EV| 
0.2442304665377041661411539053006  |BT| (ROOT (CLASS (CPR9))(NP (DT (The))(NNP (genepro))(GENEPROPRI (GPRO)))(VP (VBZ (be))(NP (DT (a))(JJ (multi-subunit))(NN (enzyme)))(WHNP (WDT (that)))(VP (RELATION (transfer))(NP (NNS (electron)))(PP (IN (from))(NP (NNP (genepro))))(PP (TO (to))(NP (JJ (molecular))(CHEMICALPRI (CEM))(NN (yielding))))))) |ET| 1:3 2:1 56:1 404:1 1090:1 1091:1 1092:1 1093:1 1094:1 1095:1 1096:1 1097:1 1098:1 1099:1  |EV| 
0.24470835596965978542272068807506  |BT| (ROOT (CLASS (CPR9))(NP (DT (The))(GENEPROPRI (GPRO))(NNP (genepro)))(VP (VBZ (be))(NP (DT (a))(JJ (multi-subunit))(NN (enzyme)))(WHNP (WDT (that)))(VP (RELATION (transfer))(NP (NNS (electron)))(PP (IN (from))(NP (NNP (genepro))))(PP (TO (to))(NP (JJ (molecular))(CHEMICALPRI (CEM))))))) |ET| 1:3 2:1 56:1 404:1 1090:1 1091:1 1092:1 1100:1 1101:1 1102:1 1103:1 1104:1 1105:1 1106:1  |EV| 
0.1632931218838128140102838870007  |BT| (ROOT (CLASS (CPR9))(NP (CHEMICALPRI (CEM))(NNP (chemical)))(VP (VBZ (be))(NP (DT (a))(JJ (mutagenic))(NNP (chemical))(RELATION (produce)))(PP (NP (WHNP (WDT (that)))(VP (VBZ (be))(VP (VBN (conjugate))(PP (IN (by))(NP (JJ (several))(NNP (genepro))(GENEPROPRI (GPRO)))))))))) |ET| 1:3 2:1 21:1 404:1 1350:1 1351:1 1352:1 1353:1 1354:1 1355:1 1356:1 1357:1 1358:1 1359:1  |EV| 
-0.046582355880699602423966609876516  |BT| (ROOT (NP (PP (NP (NN (gate)))))(VP (VBZ (be))(NP (DT (a))(VBN (bisect))(GENEPROPRI (GPRO))(NNP (genepro)))(WHNP (WDT (that)))(VP (VBZ (charge))(NP (DT (the))(NNP (chemical))(NNP (surrogate))(CHEMICALPRI (CEM))(NNP (chemical)))(PP (TO (to)))))) |ET| 1:2 167:1 404:1 12354:1 12359:1 12360:1 12361:1 12362:1 12363:1 12364:1 12365:1 12366:1  |EV| 
-0.087311636499420891555089951907576  |BT| (ROOT (VP (VBZ (be))(NP (DT (a))(VBN (bisect))(NNP (genepro))(GENEPROPRI (GPRO)))(WHNP (WDT (that)))(VP (NP (NNP (chemical))(NNP (chemical)))(PP (TO (to))(NP (NN (tRNA))))))(CHEMICALPRI (CEM))) |ET| 1:2 58:1 404:1 12369:1 12372:1 12373:1 12374:1 12378:1 12379:1 12380:1  |EV| 
-0.043980614592531448725498677276846  |BT| (ROOT (NP (DT (The))(NNP (genepro)))(CC (and))(NP (GENEPROPRI (GPRO))(JJ (second)))(VP (NP (VP (PP (NP (NN (variant)))))(CC (but))(WHNP (WDT (that)))(VP (VBD (eliminate))(NP (CHEMICALPRI (CEM))(NN (binding))))))) |ET| 1:2 404:1 1110:1 7177:1 7431:1 10725:1 10732:1 10733:1 10734:1 10735:1 10736:1 10737:1 10738:1  |EV| 
0.28430682710376620203618358573294  |BT| (ROOT (CLASS (CPR9))(NP (JJ (Different))(NNS (substrate)))(VP (VBD (be))(NP (RELATION (use)))(PP (NP (DT (the))(NN (determination)))(PP (IN (of))(NP (NNP (genepro))(JJ (enzymatic))(NN (activity:))(CHEMICALPRI (CEM))))(PP (IN (of))(NP (NNP (chemical))))(PP (IN (for))(NP (GENEPROPRI (GPRO))))))) |ET| 1:3 2:1 4:1 8:1 46:1 457:1 458:1 459:1 460:1 461:1 462:1 463:1 464:1 465:1 466:1  |EV| 
0.24592175782091368896331573523639  |BT| (ROOT (CLASS (CPR9))(NP (NNP (genepro))(GENEPROPRI (GPRO)))(VP (VBP (be))(NP (JJ (proton-linked))(NN (membrane))(NNS (carrier)))(VP (RELATION (involve))(PP (NP (DT (the))(NN (transport)))(PP (IN (of))(NP (NNP (chemical)))(PP (JJ (such))(IN (as))(NP (NNP (chemical))(CHEMICALPRI (CEM))))))))) |ET| 1:3 2:1 4:1 67:1 100:1 388:1 389:1 397:1 398:1 399:1 400:1 401:1 402:1 403:1  |EV| 
0.3055890901718629204530941478879  |BT| (ROOT (CLASS (CPR9))(PP (NP (PP (NP (NNP (chemical))(NNP (genepro)))))(GENEPROPRI (GPRO))(CONJP (RB (also))(RELATION (catalyse)))(NP (DT (the))(JJ (reversible))(NN (transamination)))(PP (IN (of))(NP (NNP (chemical)))(PP (TO (to))(NP (CHEMICALPRI (CEM))(NNP (genepro))(NNP (genepro))))))) |ET| 1:3 2:1 4:1 931:1 932:1 933:1 934:1 936:1 966:1 967:1 968:1 969:2 970:1  |EV| 
-0.073749569288941455025288007618656  |BT| (ROOT (NP (NN (anticonvulsant)))(WHNP (WDT (which)))(VP (VBZ (elevate))(NP (NN (brain))(CHEMICALPRI (CEM)))(PP (IN (by))(NP (NN (inhibition)))))(VP (PP (NP (PP (NP (NNP (genepro))(NNP (genepro))(CC (and))(NNP (genepro)))))))(GENEPROPRI (GPRO))) |ET| 1:2 127:1 375:1 448:1 4695:1 4696:1 4697:1 12249:1 12267:1 12268:1 12276:1 12282:1 12283:1 12284:1  |EV| 
-0.15046785483524205417893426783849  |BT| (ROOT (NP (DT (The))(NN (influence)))(PP (IN (of))(VP (CHEMICALPRI (CEM))(NP (PP (NP (DT (the))(NN (accumulation)))(PP (IN (of))(NP (NNP (chemical))))(WHNP (WDT (that)))(VP (VBP (be))(VP (RELATION (induce))(PP (IN (via))(NP (GENEPROPRI (GPRO))))))))))) |ET| 1:3 4:1 8:1 46:1 404:1 515:1 1542:1 2126:1 2127:1 2128:1 2129:1 2130:1 2131:1 2132:1 2133:1 2134:1 2135:1  |EV| 
-0.058045753146550589651742058094896  |BT| (ROOT (PP (NP (PP (NP (NN (anticonvulsant)))(WHNP (WDT (which)))(VP (VBZ (elevate))(NP (NN (brain))(CHEMICALPRI (CEM)))(PP (IN (by))(NP (NN (inhibition))))(PP (NP (PP (IN (of))(NP (NNP (genepro))(NNP (genepro)))(CC (and))(NP (GENEPROPRI (GPRO))(NNP (genepro))))))))))) |ET| 1:2 7:1 109:1 127:1 375:1 8388:1 12126:1 12127:1 12267:1 12268:1 12276:1 12277:1 12278:1 12279:1 12280:2 12281:1  |EV| 
0.27396276818017517573622399140731  |BT| (ROOT (CLASS (CPR9))(PP (ADVP (DT (all)))(NEGVBD (express))(NP (NNP (genepro))(CC (but))(NEGRB (not))(NNP (genepro))(GENEPROPRI (GPRO)))(PP (NP (DT (the))(NN (enzyme)))(WHNP (WDT (that)))(VP (RELATION (convert))(VP (CHEMICALPRI (CEM))))))) |ET| 1:3 2:1 404:1 839:1 840:1 841:1 842:1 843:1 844:1 845:2 846:1  |EV| 
0.3565099020587267908410922245821  |BT| (ROOT (CLASS (CPR9))(VP (NP (JJ (little))(NN (change)))(PP (IN (in))(NP (NN (mRNA))(NNS (level)))(PP (IN (for))(NP (GENEPROPRI (GPRO))(NNP (genepro)))(PP (NP (DT (the))(NN (rate))(RELATION (limit)))(NN (enzyme)))))(PP (IN (in))(NP (NN (synthesis)))(PP (IN (of))(NP (DT (the))(NNP (chemical))(CHEMICALPRI (CEM))))))) |ET| 1:3 2:1 109:1 266:1 267:1 269:1 276:1 277:1 281:1 282:1 287:1 292:1 293:1 294:2 295:1  |EV| 
0.27130340703035643601381821099494  |BT| (ROOT (CLASS (CPR9))(NP (UCP (NP (NNP (Baseline))(CHEMICALPRI (CEM))(NNP (Cor0)))(CHEMICALPRI (CEM))(VP (NP (NN (binding))(NN (globulin))(NNP (genepro)))(PP (GENEPROPRI (GPRO))(NP (RELATION (calculate))(JJ (free)))))))) |ET| 1:3 2:1 571:1 572:1 573:1 574:1 575:1 576:1 577:2 578:1  |EV| 
-0.049002990628179574073008950563235  |BT| (ROOT (NP (NNS (Interaction)))(PP (IN (between))(NP (NNP (genepro))(CC (and))(GENEPROPRI (GPRO))(NNS (effect))))(PP (IN (on))(NP (NN (affinity))))(PP (IN (for))(NP (CHEMICALPRI (CEM))))) |ET| 1:2 47:1 798:1 9584:1 9585:1 9586:1 9587:1 9588:1 9589:1 9590:1  |EV| 
-0.093220264453121759462561612963327  |BT| (ROOT (NP (DT (These))(NNS (result)))(VP (VBP (indicate))(IN (that))(NP (CHEMICALPRI (CEM)))(VP (NP (PP (NP (NNP (genepro)))))(VP (VBZ (involve))(NP (NNP (genepro))(NNP (genepro))(GENEPROPRI (GPRO))))))) |ET| 1:2 47:1 56:1 538:1 829:1 830:1 1899:1 8205:1 8206:1 8207:1 8208:1 8209:1  |EV| 
-0.04331302606673320676478056157066  |BT| (ROOT (NP (DT (The))(NNS (contraction)))(PP (TO (to))(NP (CHEMICALPRI (CEM))))(VP (VBD (be))(VP (VBN (inhibit))(VP (NP (NN (involvement)))(PP (IN (of))(NP (NNP (genepro)))(CC (and))(NP (GENEPROPRI (GPRO))(NN (receptors))))(ADVP (RB (respectively))))))) |ET| 1:2 47:1 56:1 539:1 2114:1 5942:1 12753:1 12754:1 12755:1 12756:1 12757:1 12758:1 12759:1 12760:1  |EV| 
0.27513145902847496726550957646396  |BT| (ROOT (CLASS (CPR9))(NP (NN (Exposure)))(VP (TO (to))(VP (CHEMICALPRI (CEM))(PP (RELATION (elicit))(NP (PP (NP (NNP (chemical))(NNS (concentration)))(PP (IN (in))(NP (DT (the))(NN (control))(CC (and))(GENEPROPRI (GPRO)))))))))) |ET| 1:3 2:1 1339:1 1340:1 1341:1 1342:1 1343:1 1344:1 1345:1 1346:1 1347:1 1348:1 1349:1  |EV| 
-0.072016475576741664776925233582006  |BT| (ROOT (VP (NP (PP (NP (NNP (genepro))(NNP (genepro)))))(CC (and))(NP (NNP (genepro))(GENEPROPRI (GPRO))(NNP (genepro)))(PP (NP (NNP (chemical)))(PP (IN (as))(NP (CD (one))(NNP (chemical))(CHEMICALPRI (CEM))(NN (source))))))) |ET| 1:2 4:1 7:1 810:1 1390:1 1391:1 13869:1 13870:1 13871:1 13881:2 13882:1  |EV| 
-0.05881337178827566319894160074  |BT| (ROOT (VP (PP (NP (PP (NP (PP (NP (NNP (genepro))(NNP (genepro)))(VP (VBN (obtain))(PP (IN (from))(NP (GENEPROPRI (GPRO))(NNP (genepro))))(NP (PP (NP (NN (bioavailability))(NNP (genepro)))(NP (NN (synthesis)))(CC (and))(NP (CHEMICALPRI (CEM))(NN (bioavailability))))))))))))) |ET| 1:2 7:1 109:1 266:1 299:1 6726:1 6803:1 6804:1 6805:1 6815:1 6816:1 6817:1 6818:1 6819:1 6820:1 6821:2 6822:1  |EV| 
-0.083322375391050890192090605523845  |BT| (ROOT (VP (NP (PP (NP (NN (enzyme)))(VP (ADVP (RB (functionally)))(VBN (link))(PP (TO (to))(NP (GENEPROPRI (GPRO))(NN (cytoskeleton)))(VP (NP (NNP (chemical)))(VP (TO (to))(VP (VB (generate))(NP (NNP (chemical)))))))))))(CHEMICALPRI (CEM))) |ET| 1:2 4:2 674:1 676:1 1529:1 8781:1 8799:1 8800:1 8801:1 8802:1 8803:1 8804:1 8805:1 8806:1 8807:1  |EV| 
0.15548756797777885108047257745056  |BT| (ROOT (CLASS (CPR9))(NP (GENEPROPRI (GPRO))(NNP (genepro)))(PP (NP (DT (a))(JJ (dimeric))(NN (glycoprotein))(RELATION (synthesize))))(VP (ADJP (JJ (important))(PP (IN (for))(NP (DT (the))(NN (production)))(PP (IN (of))(NP (NN (sex))(CHEMICALPRI (CEM)))))))) |ET| 1:3 2:1 98:1 99:1 101:1 102:1 103:1 104:1 105:1 106:1 109:1 110:1 111:1  |EV| 
-0.04799062067731610370380224139808  |BT| (ROOT (VP (NP (DT (the))(NNS (cleavage)))(PP (IN (of))(NP (GENEPROPRI (GPRO))(CC (and))(NNP (genepro))))(RELATION (induce))(PP (IN (by))(VP (CHEMICALPRI (CEM))(PP (IN (in))(NP (NN (HepG2))(NNS (cell)))))))) |ET| 1:3 434:1 435:1 1329:1 4182:1 5459:1 5462:1 5463:1 5464:1 5465:2 5466:1  |EV| 
-0.13642155264440669615311207962804  |BT| (ROOT (NP (CHEMICALPRI (CEM)))(VP (VBZ (be))(NP (DT (an))(JJ (uncompetitive))(NN (channel)))(PP (RELATION (block))(NP (GENEPROPRI (GPRO)))))) |ET| 1:3 46:1 47:1 1542:1 1705:1 1706:1 1707:1 1708:1 1709:1  |EV| 
-0.13151495347876562824751545122126  |BT| (ROOT (NP (CHEMICALPRI (CEM)))(VP (VBZ (be))(NP (DT (an))(GENEPROPRI (GPRO))(NN (antagonist)))(WHNP (WDT (that)))(VP (VBZ (be))(RELATION (metabolize))))) |ET| 1:3 47:1 404:1 1542:1 1782:1 1783:1 1784:1 1785:1 1786:1  |EV| 
-0.062808599810531787199785469510971  |BT| (ROOT (VP (NP (PRP$ (their))(NN (utilisation)))(PP (IN (for))(NP (DT (the))(NN (prevention)))(PP (IN (of))(NP (CHEMICALPRI (CEM)))))(VP (NP (VP (NP (NN (binding)))(PP (IN (of))(NP (NNP (chemical))))(PP (TO (to))(NP (NNP (chemical)))(VP (VBN (label))))))))(GENEPROPRI (GPRO))) |ET| 1:2 4:2 8:1 47:1 180:1 1878:1 6290:1 6291:1 6292:1 6293:1 6294:1 6295:1 6296:1 6297:1 6298:1 6299:1 6300:1  |EV| 
-0.12086206663876089550946346662386  |BT| (ROOT (NP (NNP (chemical)))(VP (VBN (synthesize))(PP (IN (by))(NP (NNP (genepro))(GENEPROPRI (GPRO)))(PP (IN (from))(NP (NNP (chemical))))))(VP (VBZ (be))(NP (DT (a))(JJ (major))(CHEMICALPRI (CEM))(NN (mediator))))) |ET| 1:2 4:2 100:1 1016:1 13296:1 13297:1 13298:1 13299:1 13300:1 13301:1  |EV| 
-0.062112098394801806833243063010741  |BT| (ROOT (NP (NN (Inhibition)))(PP (IN (by))(NP (NNP (chemical)))(PP (IN (of))(NP (CHEMICALPRI (CEM)))))(VP (IN (whereas))(NP (JJ (inhibitory))(NN (effect)))(PP (IN (of))(NP (NNP (chemical)))(PP (IN (on))(NP (GENEPROPRI (GPRO))))))) |ET| 1:2 4:2 46:1 47:1 180:1 251:1 2837:1 7065:1 7066:1 7067:1 7068:1 7069:1 7070:1  |EV| 
0.28586379403684608613289697132132  |BT| (ROOT (CLASS (CPR9))(VP (NP (NN (model)))(VP (VBG (include))(NP (DT (the))(NN (inhibition)))(PP (IN (of))(NP (GENEPROPRI (GPRO))(CC (and))(NNP (genepro))))(PP (RELATION (catalyze))(NP (CHEMICALPRI (CEM))(NN (metabolism))))))) |ET| 1:3 2:1 418:1 432:1 433:1 434:1 435:1 436:1 437:1 438:2 439:1  |EV| 
0.1741209848205621524286357271194  |BT| (ROOT (CLASS (CPR9))(NP (CC (Both))(NP (NNP (chemical)))(CC (and))(NP (CHEMICALPRI (CEM))))(VP (VBP (be))(NP (NNS (substrate)))(PP (IN (of))(NP (GENEPROPRI (GPRO))(NNP (genepro)))(PP (NP (DT (a))(NN (transport))(NN (protein))(RELATION (involve)))(PP (IN (in))(NP (NN (drug))(NN (absorption)))))))) |ET| 1:3 2:1 4:1 47:1 109:1 1298:1 1299:1 1300:1 1301:1 1302:1 1303:1 1304:1 1305:1 1306:1 1307:1  |EV| 
0.16782694618963972521541450078075  |BT| (ROOT (CLASS (CPR9))(NP (CC (Both))(NP (CHEMICALPRI (CEM)))(CC (and))(NP (NNP (chemical))))(VP (VBP (be))(NP (NNS (substrate)))(PP (IN (of))(NP (GENEPROPRI (GPRO))(NNP (genepro)))(PP (NP (DT (a))(NN (transport))(NN (protein))(RELATION (involve)))(PP (IN (in))(NP (NN (drug))(NN (absorption)))))))) |ET| 1:3 2:1 4:1 47:1 109:1 1298:1 1299:1 1300:1 1301:1 1303:1 1304:1 1305:1 1322:1 1325:1 1326:1  |EV| 
-0.041551118973537311263033444674875  |BT| (ROOT (NP (GENEPROPRI (GPRO)))(NP (PP (NP (PP (NP (NN (fraction)))(PP (IN (of))(NP (NN (3T3))(NNP (genepro))(NNS (adipocyte))))))))(VP (VBD (be))(ADVP (RELATION (stimulate)))(PP (IN (by))(NP (DT (the))(NNP (chemical))(CHEMICALPRI (CEM)))))) |ET| 1:3 46:1 287:1 364:1 4182:1 4988:1 4989:1 4991:1 4992:1 4993:1 4995:1 4996:1 5003:1 5004:1 5005:1 5006:1  |EV| 
-0.12544230151391427829921099146304  |BT| (ROOT (NP (CHEMICALPRI (CEM))(NNP (chemical)))(PP (NP (DT (a))(NN (quinazoline))(GENEPROPRI (GPRO)))(ADJP (JJ (selective))(PP (IN (for))(NP (DT (the))(NNP (genepro)))))(RELATION (have)))) |ET| 1:3 21:1 243:1 2604:1 2794:1 2795:1 2796:1 2797:1 2798:1 2799:1  |EV| 
-0.051650889946241451688990764523624  |BT| (ROOT (NP (NN (Furthermore))(NNP (genepro))(GENEPROPRI (GPRO)))(NN (concentration))(PP (IN (in)))(PP (NP (NN (receptor)))(PP (IN (for))(NP (GENEPROPRI (GPRO)))))(VP (VBP (be))(VP (RELATION (increase))(PP (IN (in))(NP (NN (secretagogue)))(PP (CHEMICALPRI (CEM))(NP (VBN (treat))(JJ (acinar)))))))) |ET| 1:3 46:1 188:1 460:1 4182:1 4667:1 4668:1 4669:1 4672:1 4685:1 4686:1 4687:1 4690:1 4691:1 4692:1 4693:1  |EV| 
0.12885156153801147205228971870383  |BT| (ROOT (CLASS (CPR9))(NP (GENEPROPRI (GPRO)))(VP (VBZ (be))(NP (DT (a))(JJ (cystolic))(NN (enzyme)))(WHNP (WDT (that)))(ADVP (RB (stereospecifically)))(VP (RELATION (catalyze))(NP (DT (the))(NN (transformation)))(PP (IN (of))(NP (NNP (chemical))))(PP (TO (to)))))(CHEMICALPRI (CEM))) |ET| 1:3 2:1 4:1 8:1 46:1 167:1 404:1 1191:1 1192:1 1193:1 1198:1 1199:1 1200:1 1201:1  |EV| 
0.11457864864064708221302879564973  |BT| (ROOT (CLASS (CPR9))(NP (NNP (genepro))(NNP (genepro)))(VP (GENEPROPRI (GPRO))(VP (RELATION (catalyse))(NP (DT (the))(NN (conversion)))(PP (IN (of))(NP (NNP (chemical))))(PP (TO (to))(NP (NNP (chemical))))))(CHEMICALPRI (CEM))) |ET| 1:3 2:1 4:2 7:1 8:1 155:1 820:1 821:1 822:1 823:1 824:1  |EV| 
-0.090966979598578204257997015247383  |BT| (ROOT (VP (NP (DT (the))(JJ (hepatic))(NNS (content)))(PP (IN (of))(NP (JJ (total))(GENEPROPRI (GPRO))(NN (mRNA)))(CONJP (RB (as))(RB (well))(IN (as)))(NP (NNP (chemical))(CHEMICALPRI (CEM)))(NN (content))))) |ET| 1:2 67:1 409:1 7356:1 7357:1 7358:1 7359:2 7360:1  |EV| 
-0.1268389604655361935225954539419  |BT| (ROOT (NP (DT (The))(NN (upregulation)))(PP (IN (of))(NP (NNP (genepro))(NNP (genepro)))(CC (and))(NP (GENEPROPRI (GPRO))(NN (activity))))(VP (VBD (be))(ADVP (RB (further)))(RELATION (inhibit))(PP (NP (PP (IN (with))(NP (NNP (chemical))))))(PP (IN (in))(NP (DT (the))(NN (presence)))(PP (IN (of)))))(CHEMICALPRI (CEM))) |ET| 1:3 4:1 7:1 595:1 600:1 642:1 699:1 2349:1 4182:1 4787:1 4788:1 4789:1 4790:1 4792:1 4795:1 4796:1 4797:1  |EV| 
-0.086145452455804932823113517770253  |BT| (ROOT (VP (NP (PP (IN (of))(NP (NNP (chemical)))))(PP (IN (in))(NP (DT (a))(GENEPROPRI (GPRO))(JJ (deficient))(NN (mutant)))(PP (IN (of))(NP (NNP (Arabidopsis))(CHEMICALPRI (CEM)))))(WHADVP (WRB (where)))(NP (DT (the))))) |ET| 1:2 4:1 8:1 9:1 263:1 13889:1 13890:1 13891:1 13892:1 13893:1 13894:2 13895:1  |EV| 
0.23191652341312035678910774549877  |BT| (ROOT (CLASS (CPR9))(PP (GENEPROPRI (GPRO))(NP (DT (the))(NN (transporter)))(PP (IN (for))(NP (DT (the))(JJ (essential))(CHEMICALPRI (CEM)))))(NP (CC (and))(NNP (chemical)))(VP (VBZ (be))(NP (CD (one)))(PP (IN (of))(NP (DT (the))(RELATION (up-regulate)))))) |ET| 1:3 2:1 112:1 113:1 114:1 115:1 117:1 121:1 122:1 123:1 124:1 125:1 126:1  |EV| 
0.28067942101492537876339383728919  |BT| (ROOT (CLASS (CPR9))(ADJP (PP (NP (PP (IN (of))(NP (NNP (chemical))(GENEPROPRI (GPRO))(NNP (genepro)))))))(PP (ADVP (RB (also)))(RELATION (catalyse))(NP (DT (the))(JJ (reversible))(NN (transamination)))(PP (IN (of))(NP (CHEMICALPRI (CEM)))(PP (TO (to))(NP (NNP (chemical))(NNP (genepro))(NNP (genepro))))))) |ET| 1:3 2:1 3:1 47:1 935:1 936:1 937:1 938:1 941:1 942:1 943:1 944:1 945:1 946:1 947:1 948:1  |EV| 
-0.07020073244046438898369189018922  |BT| (ROOT (NP (CD (Seven))(NNS (mutant)))(VP (VBD (carry))(NP (DT (the))(CHEMICALPRI (CEM))(NNS (substitution)))(PP (GENEPROPRI (GPRO))(NP (CD (one)))))) |ET| 1:2 112:1 13284:1 13285:1 13286:1 13287:1 13288:1 13289:1  |EV| 
-0.071900369393281635121972783508681  |BT| (ROOT (NP (NN (Gliotransmission))(CC (and))(NN (brain)))(CHEMICALPRI (CEM))(NP (NN (sensing:))(JJ (critical))(NN (role)))(PP (IN (of))(NP (GENEPROPRI (GPRO))))) |ET| 1:2 46:1 49:1 13618:1 13619:1 13620:1 13621:1  |EV| 
-0.071900369393282009822243594499014  |BT| (ROOT (NP (NN (blood))(NN (count))(NN (blood))(NNS (index)))(PP (IN (of))(NP (GENEPROPRI (GPRO))))(NP (NNP (genepro))(NNP (genepro))(NNP (genepro))(NNP (genepro))(NNP (genepro))(CHEMICALPRI (CEM))(NN (antigen)))) |ET| 1:2 46:1 49:1 14380:1 14381:1 14382:1 14383:1  |EV| 
-0.066742608664267705220751736305829  |BT| (ROOT (VP (PP (NP (VP (VBZ (elevate))(NP (NN (rat))(NN (brain))(NNS (level)))(PP (IN (of))(NP (DT (the))(CHEMICALPRI (CEM))))))))(VP (PP (NP (NNS (activity)))(PP (IN (of))(NP (NNP (genepro))(NNP (genepro))(CC (and))(NNP (genepro))))))(GENEPROPRI (GPRO))) |ET| 1:2 278:1 279:1 448:1 481:1 743:1 12187:1 12188:1 12189:1 12190:1 12191:1 12192:1 12193:1 12194:1 12195:1  |EV| 
-0.068961928985972698047390849751537  |BT| (ROOT (CHEMICALPRI (CEM))(NP (NNP (chemical))(NNP (chemical)))(VP (VBZ (be))(NP (DT (a))(ADJP (JJ (potent))(JJ (irreversible)))(GENEPROPRI (GPRO)))(PP (NP (PP (IN (of))(NP (DT (the))(NN (enzyme)))(WHNP (WDT (which)))(VP (VBZ (be))(VP (VBG (be))(NP (RELATION (develop)))))))))) |ET| 1:3 58:1 375:1 841:1 2604:1 3796:1 3797:1 3798:1 3799:1 3800:1 3801:1 3802:1 3803:1 3804:1 3805:1 3806:1  |EV| 
-0.057989529777494129569870295881628  |BT| (ROOT (CHEMICALPRI (CEM))(NP (NNP (chemical)))(VP (VBZ (be))(NP (DT (a))(ADJP (JJ (potent))(JJ (irreversible)))(NNP (genepro))(GENEPROPRI (GPRO)))(PP (NP (PP (IN (of))(NP (DT (the))(NN (enzyme)))(WHNP (WDT (which)))(VP (VBZ (be))(VP (VBG (be))(NP (RELATION (develop)))))))))) |ET| 1:3 4:1 375:1 841:1 2604:1 3796:1 3797:1 3798:1 3799:1 3801:1 3802:1 3803:1 3807:1 3808:1 3809:1 3810:1  |EV| 
0.20915962340060523239060330524808  |BT| (ROOT (CLASS (CPR9))(VP (ADVP (RB (strongly)))(VBP (suggest))(IN (that))(NP (GENEPROPRI (GPRO)))(VP (VBZ (be))(ADJP (RB (substantially))(RELATION (involve))(PP (IN (in))(NP (JJ (hepatic))(CHEMICALPRI (CEM))(NN (secretion)))))))) |ET| 1:3 2:1 46:1 215:1 216:1 217:1 218:1 219:1 220:2 221:1  |EV| 
0.20235607346905321035634983672935  |BT| (ROOT (CLASS (CPR9))(NP (GENEPROPRI (GPRO)))(ADJP (JJ (responsible))(PP (IN (for))(NP (JJ (familial))(VBN (isolate))(NNP (chemical))(NN (deficiency)))(PP (RELATION (play))(NP (JJ (important))(NN (role))))))(PP (IN (in))(VP (VBG (maintain))(NP (DT (the))(NN (plasma))(CHEMICALPRI (CEM)))))) |ET| 1:3 2:1 46:1 228:1 229:1 230:1 231:1 232:1 233:1 234:1 235:1 236:1 237:1  |EV| 
0.19908558813244456309199392762821  |BT| (ROOT (CLASS (CPR9))(NP (NN (Accordingly))(NN (loss)))(PP (IN (of))(NP (GENEPROPRI (GPRO)))(PP (IN (in))(NP (NN (FRDA))(NNS (cell)))))(VP (VBD (be))(VP (VBN (accompany))(PP (IN (by))(NP (RELATION (decrease))(CHEMICALPRI (CEM))))))) |ET| 1:3 2:1 46:1 686:1 687:1 688:1 689:1 690:1 691:1 692:1 693:1 694:1 695:1  |EV| 
-0.079185400338760023042361524403532  |BT| (ROOT (NP (NNP (genepro)))(VP (NN (interaction))(IN (with))(NP (GENEPROPRI (GPRO)))(VP (VBZ (occur))(ADVP (RB (primarily)))(PP (IN (through))(NP (ADJP (CHEMICALPRI (CEM))(JJ (terminal)))(VBN (link))(NNS (oligosaccharide))))))) |ET| 1:2 46:1 56:1 351:1 9531:1 12082:1 12083:1 12084:1 12085:1 12086:1 12087:1  |EV| 
-0.078441522850029629654322604892513  |BT| (ROOT (NP (DT (A))(JJ (broad-spectrum))(NNP (genepro))(GENEPROPRI (GPRO)))(NP (NN (n=6)))(CC (and))(NP (DT (an))(LS (ecto))(NNP (genepro))(NN (inhibitor)))(VP (CHEMICALPRI (CEM)))) |ET| 1:2 840:1 7985:1 7986:1 7987:1 7988:1 7989:1  |EV| 
-0.055542071923561538160374340122871  |BT| (ROOT (WHADVP (WRB (However)))(NP (PRP (we)))(VP (VBP (show))(IN (that))(NP (GENEPROPRI (GPRO)))(VP (VBZ (be))(NP (PP (NP (NN (drug))))))(CC (and))(IN (that))(NP (DT (the))(CHEMICALPRI (CEM))(NN (transporter))))) |ET| 1:2 46:1 641:1 1315:1 10022:1 11935:1 11936:1 11937:1 11938:1 11939:1 11940:1 11941:1  |EV| 
0.22582023456396235761012292186933  |BT| (ROOT (CLASS (CPR9))(NP (CD (One))(JJ (major))(NN (route)))(PP (RELATION (involve))(NP (DT (the))(NNP (chemical))(NNP (chemical))))(NP (PP (NP (NNP (genepro))(NNP (genepro)))))(CC (and))(NP (GENEPROPRI (GPRO))(NNP (genepro))(NNP (genepro)))(PP (IN (with))(NP (CHEMICALPRI (CEM))(NNP (chemical)))(PP (IN (as))(NP (CD (one)))))) |ET| 1:3 2:1 7:1 21:1 112:1 825:1 1375:1 1389:1 1390:1 1391:1 1392:1 1393:1 1394:1 1395:1 1396:1  |EV| 
-0.079842915363655425631250750484469  |BT| (ROOT (NP (WHNP (WDT (which)))(VP (VBZ (do))(RB (not))(VP (VB (alter))(NP (GENEPROPRI (GPRO))(VBN (mediate))(CHEMICALPRI (CEM))(NN (release))))))) |ET| 1:2 375:1 13919:1 13920:1 13921:1 13922:2 13923:1  |EV| 
-0.04600243989937731481365545960216  |BT| (ROOT (VP (NP (JJ (important))(NN (role)))(PP (IN (in))(NP (DT (the))(NN (efficacy)))(PP (IN (of))(NP (CHEMICALPRI (CEM))))))(NP (PRP (it)))(VP (VBZ (be))(ADJP (JJ (possible))(VP (TO (to))(VP (VB (use))(NP (DT (the))(GENEPROPRI (GPRO)))))))) |ET| 1:2 47:1 148:1 180:1 228:1 989:1 12589:1 12590:1 12591:1 12592:1 12593:1 12594:1 12595:1 12596:1 12597:1  |EV| 
-0.066623041245447406355495445495762  |BT| (ROOT (NP (DT (The))(NNS (mechanism)))(WHPP (IN (by))(WHNP (WDT (which))))(NP (CHEMICALPRI (CEM)))(VP (MD (may)))(VP (PP (IN (by))(VP (VBG (bind))(PP (TO (to))(NP (NNP (genepro))(NX (NNP (genepro)))(CC (and)))))))(GENEPROPRI (GPRO))) |ET| 1:2 47:1 375:1 7902:1 12403:1 12404:1 12405:1 12406:1 12407:1 12408:1 12409:1 12410:1 12411:1 12412:1  |EV| 
0.39385414420514769373582453226845  |BT| (ROOT (CLASS (CPR9))(NP (NN (Depletion)))(PP (IN (of))(NP (NNP (chemical))(NNP (chemical))(CC (and))(CHEMICALPRI (CEM))))(PP (NP (NNP (chemical)))(PP (NP (DT (a))(JJ (specific))(NN (inhibitor)))(PP (IN (of))(NP (GENEPROPRI (GPRO)))(VP (NP (JJ (first))(JJ (rate-limiting))(NN (enzyme)))(PP (IN (for))(NP (NNP (chemical))(NN (biosynthesis))))(PP (RELATION (decrease)))))))) |ET| 1:3 2:1 4:1 46:1 1469:1 1470:1 1471:1 1472:1 1473:1 1475:1 1476:1 1477:1 1478:1 1479:1 1482:1 1483:1 1484:1 1485:1  |EV| 
-0.12277628109811096479564440642207  |BT| (ROOT (NP (DT (The))(NN (involvement)))(PP (IN (of))(NP (NNP (genepro))(CC (and))(GENEPROPRI (GPRO))))(VP (VBZ (be))(VP (PP (NP (PP (NP (NNP (genepro))(JJ (selective))(NN (agonist)))(NP (NNP (chemical))))(WHNP (WDT (which)))(VP (RELATION (stimulate))(ADJP (PP (NP (PP (NP (NNS (antagonist)))(ADJP (NNP (chemical))(NNP (genepro))(JJ (specific))))))(CC (and))(PP (CHEMICALPRI (CEM))(NP (NNP (genepro))))))))))) |ET| 1:3 4:1 56:1 375:1 422:1 424:1 1635:1 1833:1 2197:1 2457:1 2458:1 2459:1 2460:1 2461:1 2462:1 2463:1 2464:1 2465:1 2466:1 2467:1 2468:1 2469:1 2470:1 2471:1  |EV| 
-0.079152300285160501203129967962013  |BT| (ROOT (NP (NNP (genepro)))(VP (VBZ (be))(NP (DT (a))(ADJP (CD (54))(CHEMICALPRI (CEM)))(NN (peptide)))(VP (CC (and))(VP (VBZ (activate))(NP (DT (the))(NNP (genepro))))))(GENEPROPRI (GPRO))) |ET| 1:2 56:1 243:1 11350:1 11352:1 11364:1 11365:1 11366:1 11367:1 11368:1  |EV| 
-0.10140452039655234450776788435178  |BT| (ROOT (NP (NNP (genepro)))(CC (and))(NP (NNP (genepro))(NNS (antagonist)))(CHEMICALPRI (CEM))(VP (NP (VP (VBG (indicate))(NP (DT (the))(NN (significance)))(PP (IN (of))(NP (NNP (genepro))(CC (and))(GENEPROPRI (GPRO)))))))) |ET| 1:2 56:1 422:1 424:1 9469:1 10587:1 10588:1 10589:1 10590:1 10591:1 10592:1  |EV| 
0.14924593672648497899579922432167  |BT| (ROOT (CLASS (CPR9))(PP (IN (First))(NP (NN (addition)))(PP (IN (of))(NP (GENEPROPRI (GPRO)))))(NP (PP (IN (of))(NP (DT (the))(NNP (genepro))(NNP (genepro))(JJ (-secreted))(NN (lipids)))))(VP (RELATION (increase))(NP (CHEMICALPRI (CEM))))) |ET| 1:3 2:1 46:1 47:1 49:1 197:1 204:1 205:1 206:1 207:1 208:1 209:1 210:1  |EV| 
-0.085689287691847373928943909504596  |BT| (ROOT (NP (CHEMICALPRI (CEM))(NNP (chemical)))(PP (NP (DT (a))(ADJP (RB (recently))(RELATION (describe)))(GENEPROPRI (GPRO))))) |ET| 1:3 21:1 2604:1 3123:1 3124:1 3125:1 3126:1 3127:1  |EV| 
-0.055390577712703899238011473471488  |BT| (ROOT (NP (DT (This))(NN (study)))(VP (VBD (explore))(IN (whether))(NP (CHEMICALPRI (CEM)))(VP (RELATION (improve))(PP (NP (NN (model))))(PP (IN (through))(NP (NN (inhibition)))(PP (IN (of))(NP (DT (the))(NNP (genepro))(GENEPROPRI (GPRO)))))))) |ET| 1:3 47:1 127:1 432:1 707:1 2604:1 3143:1 3602:1 3734:1 3779:1 3780:1 3781:1 3782:1 3783:1  |EV| 
-0.063436283831719536552284921526734  |BT| (ROOT (NP (CHEMICALPRI (CEM))(NNP (chemical)))(VP (VBZ (be))(NP (DT (a))(JJ (novel))(ADJP (RB (orally))(JJ (bioavailable))(PP (GENEPROPRI (GPRO))(NP (NNP (genepro))(NN (inhibitor)))(WHNP (WDT (that)))(NP (RELATION (have)))))))) |ET| 1:3 21:1 404:1 2604:1 2634:1 2635:1 2636:1 2637:1 2638:1 2639:1 2640:1 2641:1  |EV| 
-0.059117931757531987091436320724824  |BT| (ROOT (NP (PP (NP (PP (NP (DT (the))(NNP (genepro))(NNS (analog))))(NP (NNP (chemical))(CD (4))))))(VP (CHEMICALPRI (CEM))(VP (NP (NN (ventricle))(NN (up-regulation)))(PP (IN (of))(NP (NNP (genepro))(NNP (genepro)))(CC (and))(NP (GENEPROPRI (GPRO))))))) |ET| 1:2 7:1 46:1 761:1 14430:1 14440:1 14450:1 14451:1 14452:1 14453:1 14454:1 14455:1 14456:1 14457:1 14458:1  |EV| 
-0.047475933344529042123838280531345  |BT| (ROOT (VP (NP (NN (agonist)))(ADJP (NNP (chemical))(CD (8))(NN (mg)))(ADVP (CHEMICALPRI (CEM))(PP (IN (after))))(VP (NP (CC (and))(NP (NNP (genepro))))(CONJP (CC (but))(RB (not)))(NP (GENEPROPRI (GPRO)))))) |ET| 1:2 46:1 56:1 1001:1 2493:1 6638:1 13220:1 13221:1 13222:1 13223:1 13224:2 13225:1  |EV| 
-0.052859111104834648198202984303862  |BT| (ROOT (VP (NP (VP (NP (PP (NP (JJ (opioid))(NN (drugs)))(PP (JJ (such))(IN (as))(NP (CHEMICALPRI (CEM))(CC (and))(NNP (chemical))))))))(CONJP (RB (as))(RB (well))(IN (as)))(NP (NNP (genepro))(GENEPROPRI (GPRO)))(CC (and))(NP (NNP (genepro))))) |ET| 1:2 56:1 100:1 343:1 409:1 1669:1 8260:1 8261:1 8262:1 8263:1 8264:1 8265:2 8266:1  |EV| 
-0.13108638673641076488607382088958  |BT| (ROOT (NP (NNP (chemical)))(CC (and))(NP (CHEMICALPRI (CEM))(GENEPROPRI (GPRO))(NN (agonist)))(NP (DT (each)))(VP (RELATION (produce)))) |ET| 1:3 4:1 2197:1 2482:1 2483:1 2484:1 2485:1 2486:1  |EV| 
-0.073649658013598268135879720830417  |BT| (ROOT (NP (NN (route)))(VP (VBZ (involve))(NP (DT (the))(NNP (chemical)))(PP (CHEMICALPRI (CEM))(NP (JJ (-dependent))(NNS (activity)))(PP (IN (of))(NP (DT (the))(GENEPROPRI (GPRO))(NNP (genepro))(NNP (genepro))))))) |ET| 1:2 1374:1 1383:1 1413:1 1414:1 13854:1 13855:1 13856:1 13857:1 13858:1  |EV| 
-0.048208409930875405213779316682121  |BT| (ROOT (VP (VBZ (be))(VP (VBN (regulate))(PP (IN (by))(NP (DT (the))(GENEPROPRI (GPRO))(NN (family)))(NP (NN (signaling))))))(CC (and))(VP (VBZ (participate))(PP (IN (in))(NP (CHEMICALPRI (CEM))(NN (production)))))) |ET| 1:2 492:1 7391:1 7396:1 7397:1 7398:1 7399:1 7400:1 7401:1 7402:1 7403:1  |EV| 
-0.034357985069311661185942341489863  |BT| (ROOT (NP (PP (NP (PP (NP (NN (cytotoxicity)))))))(VP (VBD (be))(VP (VBN (examine))(PP (IN (with))(NP (NNS (inhibitor)))(PP (IN (of))(NP (GENEPROPRI (GPRO))(CC (and))(NNP (genepro)))))(IN (whereas))(NP (DT (the))(NN (role)))(PP (IN (of))(NP (CHEMICALPRI (CEM))))))) |ET| 1:2 47:1 180:1 434:1 435:1 2605:1 7676:1 10362:1 10363:1 10364:1 10365:1 10366:1 10367:1 10368:1 10369:1 10370:1 10371:1  |EV| 
0.026656696625135731931743876543806  |BT| (ROOT (CLASS (CPR9))(NP (CHEMICALPRI (CEM))(NNP (chemical)))(VP (VBZ (be))(ADVP (RELATION (synthesize)))(PP (NP (NNP (chemical)))(PP (IN (via))(NP (DT (the))(NN (action)))(PP (IN (of))(NP (NNP (genepro))(GENEPROPRI (GPRO)))))))) |ET| 1:3 2:1 4:1 21:1 100:1 198:1 742:1 750:1 756:1 757:1 758:1 759:1 760:1  |EV| 
0.020480644890827293114199392221053  |BT| (ROOT (CLASS (CPR9))(NP (NNP (chemical))(CHEMICALPRI (CEM)))(VP (VBZ (be))(ADVP (RELATION (synthesize)))(PP (NP (NNP (chemical)))(PP (IN (via))(NP (DT (the))(NN (action)))(PP (IN (of))(NP (NNP (genepro))(GENEPROPRI (GPRO)))))))) |ET| 1:3 2:1 4:1 67:1 100:1 198:1 742:1 750:1 756:1 757:1 758:1 768:1 769:1  |EV| 
-0.059652382744515342061220053437864  |BT| (ROOT (NP (PRP (we)))(VP (VBD (investigate))(NP (DT (the))(NN (effect)))(PP (IN (of))(NP (CHEMICALPRI (CEM))(RELATION (induce))(JJ (constitutive))(GENEPROPRI (GPRO))(NN (activity)))))) |ET| 1:3 641:1 1327:1 4182:1 4662:1 4663:1 4664:1 4665:1 4666:1  |EV| 
-0.12334946527446016828477581839252  |BT| (ROOT (NP (NNP (genepro))(CC (and))(CHEMICALPRI (CEM)))(VP (ADVP (RB (also)))(RELATION (increase))(NP (NNS (level)))(PP (IN (of))(NP (DT (the))(JJ (specific))(NN (mRNA)))(PP (IN (for))(NP (GENEPROPRI (GPRO))))))) |ET| 1:3 3:1 46:1 264:1 460:1 4182:1 5684:1 5685:1 5686:1 5687:1 5688:1 5689:1  |EV| 
-0.078392351863673298550949652963027  |BT| (ROOT (PP (IN (In))(NP (DT (a))(JJ (cell-based))(NN (model))))(CHEMICALPRI (CEM))(NP (RELATION (suppress))(NNP (genepro))(NN (activation)))(PP (IN (via))(NP (GENEPROPRI (GPRO))))) |ET| 1:3 46:1 515:1 4182:1 5498:1 5499:1 5500:1 5501:1 5502:1  |EV| 
-0.051173498870896158563503774985293  |BT| (ROOT (NP (PP (NP (NNS (role)))(PP (IN (of))(NP (NNP (genepro))(NNP (genepro)))(CC (and))(NP (GENEPROPRI (GPRO))(NNP (genepro))))(VP (VBD (be))(VP (VBN (examine))(PP (IN (in))(NP (CHEMICALPRI (CEM))))))))(VP (VBD (induce)))) |ET| 1:2 7:1 47:1 109:1 860:1 1952:1 8388:1 12620:1 12954:1 12955:1 12956:1 12957:1 12958:1 12959:1  |EV| 
-0.045520407309344243507176486218668  |BT| (ROOT (PP (NP (NN (mutation)))(PP (IN (of))(NP (DT (the))(JJ (orthologous))(GENEPROPRI (GPRO)))(PP (IN (in))(NP (NNP (genepro))(NNP (genepro))))))(VP (PP (NP (NN (substrates)))(ADJP (NN (medium-))(CC (and))(JJ (long-chain)))(CHEMICALPRI (CEM))(CC (and))(NP (VBN (increase)))))) |ET| 1:2 7:1 1487:1 5425:1 11333:1 11334:1 11335:1 11336:1 11337:1 11338:1 11339:1 11340:1 11341:1 11342:1  |EV| 
-0.083258998490131047587325952008541  |BT| (ROOT (PP (IN (Unlike))(NP (NN (mouse))))(NP (NNP (genepro))(GENEPROPRI (GPRO)))(VP (NP (NNS (bond)))(PP (IN (of))(NP (NNP (chemical))))(VP (TO (to))(VP (VB (produce))(NP (CC (either))(CHEMICALPRI (CEM))))))) |ET| 1:2 4:1 8:1 100:1 11845:1 11847:1 11853:1 11854:1 11855:1 11856:1 11857:1 11858:1 11859:1  |EV| 
0.16078406149089868870660779975879  |BT| (ROOT (CLASS (CPR9))(NP (JJ (Kinetic))(NNS (constant)))(PP (IN (of))(NP (DT (the))(JJ (mutant))(GENEPROPRI (GPRO))))(NP (RELATION (show))(NN (modification)))(PP (IN (in))(NP (NN (favor)))(PP (IN (of))(NP (JJR (long))(CHEMICALPRI (CEM)))))) |ET| 1:3 2:1 1120:1 1121:1 1122:1 1123:1 1124:1 1125:1 1126:1 1127:1 1128:1 1129:1  |EV| 
-0.085937190399240276361680912486918  |BT| (ROOT (IN (Although))(NP (VBG (reduce))(NNP (genepro))(CHEMICALPRI (CEM))(GENEPROPRI (GPRO))(NN (c)))) |ET| 1:2 6609:1 6610:1 6611:1  |EV| 
-0.077741110938961327514462595900113  |BT| (ROOT (NP (NNP (genepro))(NNS (channel))(RELATION (be)))(ADJP (RBR (less))(JJ (sensitive)))(PP (TO (to)))(ADJP (JJ (similar))(PP (TO (to))(NP (NNP (chemical)))))(PP (CHEMICALPRI (CEM))(NP (GENEPROPRI (GPRO))(NNS (antagonist))))) |ET| 1:3 4:1 167:1 820:1 1542:1 1965:1 1966:1 1967:1 1968:1 1969:1 1970:1 1971:1  |EV| 
-0.056855245411537497224330195422226  |BT| (ROOT (NP (NNP (chemical))(CC (and))(NNP (chemical)))(CONJP (CC (but))(NEGRB (not)))(NP (DT (the))(GENEPROPRI (GPRO))(NNS (antagonist)))(NX (CHEMICALPRI (CEM)))(CC (and))(NX (UCP (NP (NNP (chemical))(RELATION (inhibit)))))) |ET| 1:3 170:1 1542:1 1649:1 1855:1 1976:1 1977:1 1978:1 1979:1 1980:1 1981:1  |EV| 
-0.046120731202328998921124991738907  |BT| (ROOT (NP (VP (ADJP (NP (DT (a))(JJ (conformational))(NN (change)))(VP (VBZ (be))(ADJP (VBN (induce))(WHADVP (WRB (when)))(NP (GENEPROPRI (GPRO)))(VP (PP (NP (DT (an))(NN (increase)))(PP (IN (of))(NP (NN (GAD))(NN (affinity)))(PP (IN (for))(NP (CHEMICALPRI (CEM))))))))))))) |ET| 1:2 46:1 47:1 597:1 798:1 1513:1 9098:1 9099:1 9100:1 9101:1 9102:1 9103:1 9104:1 9105:1 9106:1 9107:2 9108:1  |EV| 
-0.044151918321033059577906954018545  |BT| (ROOT (NP (NNP (Knockdown)))(PP (IN (of))(NP (GENEPROPRI (GPRO)))(VP (VBD (inhibit))(NP (JJ (acid-induced))(NN (increase)))(PP (IN (in))(NP (NNP (genepro))(NN (expression))))(PP (CHEMICALPRI (CEM)))))) |ET| 1:2 46:1 297:1 491:1 3265:1 7415:1 7416:1 7417:1 7418:1 7419:1 7420:1  |EV| 
-0.04497005910986150850616738239296  |BT| (ROOT (VP (NP (NNP (chemical)))(VP (MD (may))(VP (VB (interact))(PP (IN (with))(NP (CHEMICALPRI (CEM))(NN (metabolism)))))))(VP (VBP (implicate))(NP (DT (an))(NN (involvement)))(PP (IN (of))(NP (GENEPROPRI (GPRO))(CC (and)))))) |ET| 1:2 4:1 433:1 1834:1 5927:1 5933:1 5934:1 5935:1 5936:1 5937:1 5938:1 5939:1 5940:1  |EV| 
0.18896756907574005501793124039978  |BT| (ROOT (CLASS (CPR9))(NP (CD (One))(JJ (major))(NN (route)))(PP (RELATION (involve))(NP (DT (the))(NNP (chemical))))(NP (NNS (activity)))(PP (IN (of))(NP (DT (the))(NNP (genepro))(GENEPROPRI (GPRO))(NNP (genepro))))(CC (and))(NP (NNP (genepro))(NNP (genepro))(NNP (genepro)))(PP (IN (with))(NP (CHEMICALPRI (CEM))(NNP (chemical)))(PP (IN (as))))) |ET| 1:3 2:1 21:1 481:1 1373:1 1374:1 1375:1 1376:1 1377:1 1378:1 1379:1 1380:1 1381:1 1382:1  |EV| 
0.21675665086081180588095662642445  |BT| (ROOT (CLASS (CPR9))(NP (CD (One))(JJ (major))(NN (route)))(PP (RELATION (involve))(NP (DT (the))(NNP (chemical))(NNP (chemical))))(NP (NNS (activity)))(PP (IN (of))(NP (DT (the))(GENEPROPRI (GPRO))(NNP (genepro))(NNP (genepro))))(CC (and))(NP (NNP (genepro)))(PP (IN (with))(NP (NNP (chemical))(CHEMICALPRI (CEM)))(PP (IN (as))(NP (CD (one))(NNP (chemical)))))) |ET| 1:3 2:1 56:1 67:1 481:1 1375:1 1392:1 1393:1 1406:1 1407:1 1408:1 1413:1 1414:1 1415:1 1416:1  |EV| 
-0.056704814301543893240165061797597  |BT| (ROOT (PP (NP (NN (addition))(NN (pretreatment)))(PP (IN (with))(NP (NNP (chemical))(CHEMICALPRI (CEM)))))(NP (DT (a)))(VP (VB (rescue))(NP (JJ (apoptotic))(NNS (cell)))(PP (IN (from))(NP (GENEPROPRI (GPRO))(NN (toxicity)))))) |ET| 1:2 67:1 196:1 11011:1 11012:1 11013:1 11014:1 11015:1 11016:1 11017:1 11018:1 11019:1  |EV| 
-0.062199442660941892113690698806749  |BT| (ROOT (VP (NP (PP (NP (CC (and))(NN (fat)))))(CC (or))(NP (NNP (chemical))(CHEMICALPRI (CEM)))(NN (interaction))(PP (IN (on))(NP (GENEPROPRI (GPRO))(NNP (genepro)))))) |ET| 1:2 67:1 109:1 10593:1 10594:1 10595:1 10596:1 10597:2 10598:1  |EV| 
-0.032772954518917367383590288909545  |BT| (ROOT (NP (PP (NP (PP (NP (NN (lipid))(NN (fraction)))(PP (IN (of))(NP (NN (3T3))(GENEPROPRI (GPRO))(NNS (adipocyte))))))))(VP (PP (IN (by))(NP (DT (the))(NNP (chemical))(NNP (chemical)))))(CHEMICALPRI (CEM))) |ET| 1:2 1392:1 4999:1 10513:1 10514:1 10528:1 10531:1 10533:1 10534:1 10536:1 10539:1 10540:1 10541:1  |EV| 
0.11492519897257902350418135029031  |BT| (ROOT (CLASS (CPR9))(GENEPROPRI (GPRO))(VP (NP (PP (NP (NN (beta-family)))(PP (IN (of))(NP (ADJP (NNP (chemical))(JJ (dependent)))(NN (PLP))(NN (enzymes))))))(PP (RELATION (catalyze))(NP (DT (the))(NN (deamination)))(PP (IN (of))(NP (NNP (chemical))))))(CC (and))(VP (CHEMICALPRI (CEM)))) |ET| 1:3 2:1 4:1 8:1 840:1 900:1 901:1 902:1 903:1 904:1 906:1 907:1 911:1 912:1 913:1 914:1  |EV| 
0.12713745723274214038944762705796  |BT| (ROOT (CLASS (CPR9))(NP (PRP (We)))(VP (RELATION (conclude))(IN (that))(NP (GENEPROPRI (GPRO)))(VP (ADJP (RB (solely))(JJ (capable))(PP (IN (of))(NP (DT (the))(NN (reduction)))(PP (IN (of))(NP (CHEMICALPRI (CEM))))))))) |ET| 1:3 2:1 18:1 46:1 47:1 180:1 634:1 635:1 636:1 637:1 638:1 639:1 640:1  |EV| 
